{"learner":{"attributes":{"scikit_learn":"{\"_estimator_type\": \"classifier\"}"},"feature_names":["pi2_pt","m_01","triplet_mass","pi2_iso","triplet_mindVz","triplet_pt","pi0_pt","dVz_02","triplet_charge","pi1_pt"],"feature_types":["float","float","float","float","float","float","float","float","float","float"],"gradient_booster":{"model":{"gbtree_model_param":{"num_parallel_tree":"1","num_trees":"19"},"iteration_indptr":[0,1,2,3,4,5,6,7,8,9,10,11,12,13,14,15,16,17,18,19],"tree_info":[0,0,0,0,0,0,0,0,0,0,0,0,0,0,0,0,0,0,0],"trees":[{"base_weights":[-3.589527E-8,-9.1180223E-1,5.1423187E0,-1.075443E0,1.9841605E0,6.550941E-1,5.6563764E0,-1.1300815E0,-6.856134E-2,9.5078814E-1,3.6738944E0,2.633087E0,-9.6619254E-1,5.8201094E0,1.3676097E0,-1.1729639E0,-8.100775E-1,-7.25358E-1,1.4880005E0,1.4397955E0,-4.8010135E-1,4.3175545E0,1.0369307E-1,2.1857144E-1,3.9540603E0,-5.2388096E-1,-3.9158633E-1,4.8178652E-1,5.8619375E0,-3.6837927E-1,2.524952E0,-5.341138E-1,-4.9796116E-1,4.5721206E-1,-4.1973266E-1,-3.5600528E-1,5.215519E-1,-2.6406032E-1,1.1527171E0,-4.547729E-2,1.0624064E0,7.901842E-1,-2.9258457E-1,-3.62411E-1,2.0737464E0,-4.733329E-1,4.8896244E-1,-4.4868878E-1,3.8072696E-1,1.931616E0,-1.9816029E-1,7.9544866E-1,-3.0788022E-1,-1.9446026E-1,9.5444155E-1,2.6488466E0,-1.7825788E-1,-3.4358448E-1,2.2761944E-1,1.5733595E0,3.361393E-2],"categories":[],"categories_nodes":[],"categories_segments":[],"categories_sizes":[],"default_left":[0,0,0,0,0,0,0,0,0,0,0,0,0,0,0,0,0,0,0,0,0,0,0,0,0,0,0,0,0,0,0,0,0,0,0,0,0,0,0,0,0,0,0,0,0,0,0,0,0,0,0,0,0,0,0,0,0,0,0,0,0],"id":0,"left_children":[1,3,5,7,9,11,13,15,17,19,21,23,25,27,29,31,33,35,37,39,41,43,45,47,49,-1,51,53,55,57,59,-1,-1,-1,-1,-1,-1,-1,-1,-1,-1,-1,-1,-1,-1,-1,-1,-1,-1,-1,-1,-1,-1,-1,-1,-1,-1,-1,-1,-1,-1],"loss_changes":[2.8671959E4,2.4635796E3,2.1206953E3,2.7042334E2,4.8219397E2,3.0974344E2,5.7219727E2,6.304785E1,2.609044E2,1.224046E2,2.4131213E2,1.3761911E2,5.616333E0,1.7480078E2,6.459661E1,2.494629E0,1.2511795E2,2.3149345E1,1.7022147E2,1.8459329E2,1.8277283E1,1.3644922E2,2.055831E1,1.33632E1,4.3539368E1,0E0,1.0802913E1,1.18138275E1,1.227832E2,5.0662003E0,4.5296318E1,0E0,0E0,0E0,0E0,0E0,0E0,0E0,0E0,0E0,0E0,0E0,0E0,0E0,0E0,0E0,0E0,0E0,0E0,0E0,0E0,0E0,0E0,0E0,0E0,0E0,0E0,0E0,0E0,0E0,0E0],"parents":[2147483647,0,0,1,1,2,2,3,3,4,4,5,5,6,6,7,7,8,8,9,9,10,10,11,11,12,12,13,13,14,14,15,15,16,16,17,17,18,18,19,19,20,20,21,21,22,22,23,23,24,24,26,26,27,27,28,28,29,29,30,30],"right_children":[2,4,6,8,10,12,14,16,18,20,22,24,26,28,30,32,34,36,38,40,42,44,46,48,50,-1,52,54,56,58,60,-1,-1,-1,-1,-1,-1,-1,-1,-1,-1,-1,-1,-1,-1,-1,-1,-1,-1,-1,-1,-1,-1,-1,-1,-1,-1,-1,-1,-1,-1],"split_conditions":[7E0,6.3635117E1,5.7322163E1,6.579489E1,4.5E0,6.666667E-1,1.8409091E0,1E1,4.75E0,8.786458E1,9.2931694E1,2.3910252E1,4.4000587E1,1.45E1,1.85E1,9.5E0,5.154678E0,6.125E1,1.15E1,7.6346405E1,3.1441813E0,9.5E0,2.375E1,1.7380387E0,4.53125E-1,-5.2388096E-1,8.75E-1,8.75E0,2E0,6.1636425E1,3.9166667E0,-5.341138E-1,-4.9796116E-1,4.5721206E-1,-4.1973266E-1,-3.5600528E-1,5.215519E-1,-2.6406032E-1,1.1527171E0,-4.547729E-2,1.0624064E0,7.901842E-1,-2.9258457E-1,-3.62411E-1,2.0737464E0,-4.733329E-1,4.8896244E-1,-4.4868878E-1,3.8072696E-1,1.931616E0,-1.9816029E-1,7.9544866E-1,-3.0788022E-1,-1.9446026E-1,9.5444155E-1,2.6488466E0,-1.7825788E-1,-3.4358448E-1,2.2761944E-1,1.5733595E0,3.361393E-2],"split_indices":[0,1,2,2,0,3,3,9,0,2,2,1,2,6,9,6,5,6,9,2,5,9,9,1,7,0,3,0,8,1,3,0,0,0,0,0,0,0,0,0,0,0,0,0,0,0,0,0,0,0,0,0,0,0,0,0,0,0,0,0,0],"split_type":[0,0,0,0,0,0,0,0,0,0,0,0,0,0,0,0,0,0,0,0,0,0,0,0,0,0,0,0,0,0,0,0,0,0,0,0,0,0,0,0,0,0,0,0,0,0,0,0,0,0,0,0,0,0,0,0,0,0,0,0,0],"sum_hessian":[6.1130176E3,5.193044E3,9.1997375E2,4.9158926E3,2.771515E2,9.479344E1,8.2518036E2,4.662746E3,2.5314622E2,1.7294688E2,1.0420459E2,4.241836E1,5.2375084E1,7.944918E2,3.0688524E1,4.109398E3,5.533482E2,1.7840262E2,7.474361E1,1.288918E2,4.405508E1,8.811016E1,1.6094427E1,1.5412459E1,2.7005901E1,3.8190163E1,1.4184918E1,6.2740984E0,7.882177E2,1.2548197E1,1.8140327E1,3.3816025E3,7.277954E2,3.4371147E1,5.1897705E2,1.7294688E2,5.4557376E0,2.5641968E1,4.910164E1,4.8556065E1,8.033574E1,2.455082E0,4.16E1,4.6373773E0,8.3472786E1,7.365246E0,8.72918E0,5.0465574E0,1.0365902E1,2.5096394E1,1.9095082E0,1.0911475E0,1.3093771E1,4.5009837E0,1.7731148E0,7.8521704E2,3.0006557E0,8.72918E0,3.8190165E0,1.268459E1,5.4557376E0],"tree_param":{"num_deleted":"0","num_feature":"10","num_nodes":"61","size_leaf_vector":"1"}},{"base_weights":[-3.505531E-1,-9.685076E-1,8.357467E-1,-1.0375612E0,1.21749304E-1,-4.313416E-3,1.1698799E0,-1.0908355E0,-7.4480224E-1,8.358983E-1,-7.6549613E-1,2.5075307E-1,-8.543774E-1,1.2391144E0,-1.3513036E-1,-1.0915679E0,7.6845504E-2,-9.3537444E-1,4.949346E-2,-5.000109E-1,1.2348919E0,-1.0740106E0,-1.0171222E-2,-8.1929874E-1,7.0253336E-1,-5.103001E-1,-1.0752857E0,1.3120501E0,5.9922856E-1,-1.3785897E0,4.9857664E-1,-4.9654382E-1,-4.6135452E-1,-2.2323044E-1,-4.4542477E-1,5.3589076E-1,-2.665368E-1,5.087655E-1,-2.936188E-1,-6.069847E-1,6.068038E-1,-2.1116333E-1,-5.028214E-1,4.5697105E-1,-2.2518335E-1,-4.5727715E-1,-2.1705146E-1,3.685243E-1,-6.182266E-1,-3.2913646E-1,1.1575825E-1,-4.7057036E-2,-5.015416E-1,-5.370256E-1,5.939227E-1,-1.0764059E-1,4.6566838E-1,2.1307868E-1,-7.918429E-1,4.123057E-1,-4.2589647E-1],"categories":[],"categories_nodes":[],"categories_segments":[],"categories_sizes":[],"default_left":[0,0,0,0,0,0,0,0,0,0,0,0,0,0,0,0,0,0,0,0,0,0,0,0,0,0,0,0,0,0,0,0,0,0,0,0,0,0,0,0,0,0,0,0,0,0,0,0,0,0,0,0,0,0,0,0,0,0,0,0,0],"id":1,"left_children":[1,3,5,7,9,11,13,15,17,19,21,23,25,27,29,31,-1,33,35,37,39,41,43,45,47,49,51,53,55,57,59,-1,-1,-1,-1,-1,-1,-1,-1,-1,-1,-1,-1,-1,-1,-1,-1,-1,-1,-1,-1,-1,-1,-1,-1,-1,-1,-1,-1,-1,-1],"loss_changes":[3.7570095E3,2.5379639E2,4.9274658E2,4.8610107E1,1.2837352E2,1.0874169E2,1.1364209E2,2.6618652E0,7.437164E1,6.0405716E1,2.1060154E1,1.8707434E2,8.249504E0,5.487964E1,5.125646E1,9.7558594E-1,0E0,8.984131E0,7.100008E1,7.328399E0,2.724614E1,1.1592865E0,1.4200991E1,7.137993E0,6.682074E1,8.192182E0,2.534935E0,2.2423828E1,4.5490616E1,1.6310738E1,2.6966274E1,0E0,0E0,0E0,0E0,0E0,0E0,0E0,0E0,0E0,0E0,0E0,0E0,0E0,0E0,0E0,0E0,0E0,0E0,0E0,0E0,0E0,0E0,0E0,0E0,0E0,0E0,0E0,0E0,0E0,0E0],"parents":[2147483647,0,0,1,1,2,2,3,3,4,4,5,5,6,6,7,7,8,8,9,9,10,10,11,11,12,12,13,13,14,14,15,15,17,17,18,18,19,19,20,20,21,21,22,22,23,23,24,24,25,25,26,26,27,27,28,28,29,29,30,30],"right_children":[2,4,6,8,10,12,14,16,18,20,22,24,26,28,30,32,-1,34,36,38,40,42,44,46,48,50,52,54,56,58,60,-1,-1,-1,-1,-1,-1,-1,-1,-1,-1,-1,-1,-1,-1,-1,-1,-1,-1,-1,-1,-1,-1,-1,-1,-1,-1,-1,-1,-1,-1],"split_conditions":[6.579489E1,6.25E0,5.75E0,8.75E0,3.846154E-1,3.59375E-1,9.93459E1,7.001668E1,4.5E0,1E1,1.35E1,-5E-1,6.484375E-1,6E-1,2.625E1,9.5E0,7.6845504E-2,6.758224E0,1.3661196E1,3.4815462E0,1.7380387E0,4.7058824E-1,1.104832E1,-7.5E-1,2E0,4.4E1,2.9250462E0,-2E0,8.75E0,7.0030055E0,5.625E-1,-4.9654382E-1,-4.6135452E-1,-2.2323044E-1,-4.4542477E-1,5.3589076E-1,-2.665368E-1,5.087655E-1,-2.936188E-1,-6.069847E-1,6.068038E-1,-2.1116333E-1,-5.028214E-1,4.5697105E-1,-2.2518335E-1,-4.5727715E-1,-2.1705146E-1,3.685243E-1,-6.182266E-1,-3.2913646E-1,1.1575825E-1,-4.7057036E-2,-5.015416E-1,-5.370256E-1,5.939227E-1,-1.0764059E-1,4.6566838E-1,2.1307868E-1,-7.918429E-1,4.123057E-1,-4.2589647E-1],"split_indices":[2,0,0,9,3,7,2,5,0,9,9,4,7,3,9,6,0,5,5,5,1,3,5,4,8,6,5,8,0,5,3,0,0,0,0,0,0,0,0,0,0,0,0,0,0,0,0,0,0,0,0,0,0,0,0,0,0,0,0,0,0],"split_type":[0,0,0,0,0,0,0,0,0,0,0,0,0,0,0,0,0,0,0,0,0,0,0,0,0,0,0,0,0,0,0,0,0,0,0,0,0,0,0,0,0,0,0,0,0,0,0,0,0,0,0,0,0,0,0,0,0,0,0,0,0],"sum_hessian":[5.1228657E3,3.3684124E3,1.7544534E3,3.1678206E3,2.0059174E2,4.995352E2,1.2549182E3,2.6778052E3,4.9001532E2,1.1116902E2,8.9422714E1,3.847837E2,1.14751495E2,1.1917433E3,6.3174915E1,2.6763862E3,1.4190235E0,3.9505396E2,9.496136E1,2.5508467E1,8.566055E1,6.319047E1,2.6232243E1,1.1398772E2,2.70796E2,4.616183E1,6.858967E1,1.0688615E3,1.2288178E2,2.093022E1,4.2244698E1,2.257112E3,4.1927414E2,4.4686287E1,3.5036768E2,3.3870472E1,6.109088E1,1.6327382E0,2.3875729E1,3.1484704E0,8.2512085E1,5.019374E0,5.8171097E1,8.136916E0,1.8095327E1,7.067792E1,4.33098E1,2.569935E2,1.3802493E1,3.5874203E1,1.0287628E1,2.8080685E0,6.57816E1,2.8362203E0,1.0660253E3,4.2167683E1,8.0714096E1,3.5300875E0,1.7400131E1,3.3056244E1,9.188453E0],"tree_param":{"num_deleted":"0","num_feature":"10","num_nodes":"61","size_leaf_vector":"1"}},{"base_weights":[-3.160053E-1,-9.7540814E-1,5.187952E-1,-1.0427389E0,-6.6562694E-1,-1.8902852E-1,9.344042E-1,-8.0805886E-1,-1.0479873E0,-7.9737073E-1,-9.706897E-2,7.1393865E-1,-4.162833E-1,1.0406649E0,4.0118445E-2,-8.9260125E-1,5.3382736E-1,-4.7699395E-1,-9.461756E-1,-8.362493E-1,6.6124845E-1,4.887079E-1,-8.3895683E-1,9.5161813E-1,-4.25429E-1,-6.00034E-1,4.4202518E-1,-1.9640735E0,1.0578909E0,-6.4961076E-1,4.2847735E-1,-1.5381193E-1,-4.1921502E-1,6.241451E-1,-2.570297E-1,-2.279638E-1,-4.6551132E-1,-1.3283797E-1,-3.9502072E-1,-3.171393E-1,5.0121915E-1,5.418079E-1,6.2845284E-3,-1.7055316E-2,-4.1010195E-1,-1.5600745E-1,5.267967E-1,-3.9262718E-1,8.4551655E-2,-3.415457E-1,-1.1516167E-1,2.7734676E-1,-2.7852574E-1,-3.0025202E-1,-1.0442958E0,4.898685E-1,-2.2869799E-1,6.9130465E-2,-4.0235057E-1,1.3861374E-3,4.2205632E-1],"categories":[],"categories_nodes":[],"categories_segments":[],"categories_sizes":[],"default_left":[0,0,0,0,0,0,0,0,0,0,0,0,0,0,0,0,0,0,0,0,0,0,0,0,0,0,0,0,0,0,0,0,0,0,0,0,0,0,0,0,0,0,0,0,0,0,0,0,0,0,0,0,0,0,0,0,0,0,0,0,0],"id":2,"left_children":[1,3,5,7,9,11,13,15,17,19,21,23,25,27,29,31,33,-1,35,37,39,41,43,45,47,49,51,53,55,57,59,-1,-1,-1,-1,-1,-1,-1,-1,-1,-1,-1,-1,-1,-1,-1,-1,-1,-1,-1,-1,-1,-1,-1,-1,-1,-1,-1,-1,-1,-1],"loss_changes":[2.0676165E3,4.307251E1,4.8787625E2,1.2741699E0,2.8192001E1,1.26321365E2,9.923309E1,5.245245E0,1.050415E0,1.7921265E1,3.1759947E1,3.394516E1,7.774853E1,5.0406006E1,3.027617E1,5.387955E-1,3.7308853E0,0E0,6.7158356E0,6.461197E0,6.04593E0,1.3886656E1,1.8322296E0,2.9636292E1,6.215131E0,2.1963684E1,1.6508448E1,1.0747337E0,4.522937E1,8.13825E0,1.5654332E1,0E0,0E0,0E0,0E0,0E0,0E0,0E0,0E0,0E0,0E0,0E0,0E0,0E0,0E0,0E0,0E0,0E0,0E0,0E0,0E0,0E0,0E0,0E0,0E0,0E0,0E0,0E0,0E0,0E0,0E0],"parents":[2147483647,0,0,1,1,2,2,3,3,4,4,5,5,6,6,7,7,8,8,9,9,10,10,11,11,12,12,13,13,14,14,15,15,16,16,18,18,19,19,20,20,21,21,22,22,23,23,24,24,25,25,26,26,27,27,28,28,29,29,30,30],"right_children":[2,4,6,8,10,12,14,16,18,20,22,24,26,28,30,32,34,-1,36,38,40,42,44,46,48,50,52,54,56,58,60,-1,-1,-1,-1,-1,-1,-1,-1,-1,-1,-1,-1,-1,-1,-1,-1,-1,-1,-1,-1,-1,-1,-1,-1,-1,-1,-1,-1,-1,-1],"split_conditions":[1.2E1,1.225E1,5.5E0,2.75E0,6E0,6.758224E0,8.5714287E-1,7.25E0,9.5E0,6.2978832E1,3.3333334E-1,3.984375E-1,7.2689606E1,1.9414423E0,5.1138916E1,1.8372461E0,1.05E1,-4.7699395E-1,5.8857617E0,6.758224E0,6.1754383E1,1.3767524E1,3.955932E0,-4.0625E-1,7.786927E1,4E0,9.588164E1,5.6653046E1,6.953125E-1,1.4529222E1,1.075E1,-1.5381193E-1,-4.1921502E-1,6.241451E-1,-2.570297E-1,-2.279638E-1,-4.6551132E-1,-1.3283797E-1,-3.9502072E-1,-3.171393E-1,5.0121915E-1,5.418079E-1,6.2845284E-3,-1.7055316E-2,-4.1010195E-1,-1.5600745E-1,5.267967E-1,-3.9262718E-1,8.4551655E-2,-3.415457E-1,-1.1516167E-1,2.7734676E-1,-2.7852574E-1,-3.0025202E-1,-1.0442958E0,4.898685E-1,-2.2869799E-1,6.9130465E-2,-4.0235057E-1,1.3861374E-3,4.2205632E-1],"split_indices":[9,6,0,0,0,5,3,9,6,5,3,7,1,1,1,5,6,0,5,5,2,5,5,7,2,0,2,2,7,5,0,0,0,0,0,0,0,0,0,0,0,0,0,0,0,0,0,0,0,0,0,0,0,0,0,0,0,0,0,0,0],"split_type":[0,0,0,0,0,0,0,0,0,0,0,0,0,0,0,0,0,0,0,0,0,0,0,0,0,0,0,0,0,0,0,0,0,0,0,0,0,0,0,0,0,0,0,0,0,0,0,0,0,0,0,0,0,0,0,0,0,0,0,0,0],"sum_hessian":[3.7541748E3,2.097336E3,1.6568389E3,1.7209274E3,3.7640866E2,6.13142E2,1.0436969E3,4.103529E1,1.679892E3,3.0527032E2,7.113836E1,1.2285443E2,4.9028757E2,9.327072E2,1.1098966E2,3.8918156E1,2.1171324E0,1.4943601E3,1.8553197E2,2.9776038E2,7.509931E0,3.994221E1,3.1196148E1,1.01785995E2,2.1068436E1,4.0408096E2,8.620662E1,4.6724524E0,9.280348E2,3.9739395E1,7.125027E1,3.2183278E0,3.569983E1,1.0507057E0,1.0664268E0,3.2159103E1,1.5337286E2,2.1825262E1,2.7593512E2,1.7302573E0,5.7796736E0,1.5321165E1,2.4621046E1,2.7114558E0,2.8484692E1,1.460955E1,8.7176445E1,1.1941317E1,9.127118E0,2.7557907E2,1.2850188E2,7.440254E1,1.1804082E1,1.6268791E0,3.0455735E0,9.104883E2,1.754651E1,9.360401E0,3.0378996E1,3.9375614E1,3.1874651E1],"tree_param":{"num_deleted":"0","num_feature":"10","num_nodes":"61","size_leaf_vector":"1"}},{"base_weights":[-2.7977845E-1,-9.3547976E-1,3.5653523E-1,-1.0075924E0,-6.489492E-1,-1.2868126E-1,7.599919E-1,-6.858586E-1,-1.0157255E0,-7.764276E-1,-2.1959653E-1,4.4446312E-2,-6.816508E-1,9.1311014E-1,1.7234817E-1,-7.9526865E-1,2.5860235E-1,-1.0170381E0,-4.382636E-2,-8.239119E-1,4.747219E-2,2.5792322E-1,-8.0473185E-1,-7.152927E-1,2.5435886E-1,8.891084E-2,-8.1135756E-1,-8.858344E-1,9.334448E-1,8.562832E-1,-1.4359346E-1,-1.8850173E-1,-4.0529594E-1,-4.621669E-1,-3.993584E-1,-1.380375E-1,-3.8833433E-1,-2.8792882E-1,2.7114826E-1,1.8182506E-1,-6.03105E-1,-3.910573E-1,1.4263411E-1,-4.0279704E-1,-1.7648225E-1,2.2780602E-1,-2.3498163E-1,2.4819463E-1,-2.9055136E-1,-4.150894E-1,-6.604116E-2,-5.474349E-1,4.2908874E-1,-3.5943946E-1,4.343526E-1,-2.1997055E-1,2.7228615E-1],"categories":[],"categories_nodes":[],"categories_segments":[],"categories_sizes":[],"default_left":[0,0,0,0,0,0,0,0,0,0,0,0,0,0,0,0,0,0,0,0,0,0,0,0,0,0,0,0,0,0,0,0,0,0,0,0,0,0,0,0,0,0,0,0,0,0,0,0,0,0,0,0,0,0,0,0,0],"id":3,"left_children":[1,3,5,7,9,11,13,15,17,19,21,23,25,27,29,31,-1,33,-1,35,37,39,41,43,45,47,49,-1,51,53,55,-1,-1,-1,-1,-1,-1,-1,-1,-1,-1,-1,-1,-1,-1,-1,-1,-1,-1,-1,-1,-1,-1,-1,-1,-1,-1],"loss_changes":[1.1573038E3,2.7570068E1,2.7573587E2,2.1540527E0,1.5015938E1,6.1309025E1,6.90293E1,4.58632E0,1.1795654E0,8.393585E0,1.8345837E1,7.807291E1,1.533226E1,3.756714E1,3.47334E1,7.321472E-1,0E0,4.605713E-1,0E0,3.8143616E0,5.185886E0,9.066312E0,2.3963852E0,5.807125E0,7.5257484E1,8.138133E0,9.518059E0,0E0,2.7335999E1,9.922462E0,2.8834633E1,0E0,0E0,0E0,0E0,0E0,0E0,0E0,0E0,0E0,0E0,0E0,0E0,0E0,0E0,0E0,0E0,0E0,0E0,0E0,0E0,0E0,0E0,0E0,0E0,0E0,0E0],"parents":[2147483647,0,0,1,1,2,2,3,3,4,4,5,5,6,6,7,7,8,8,9,9,10,10,11,11,12,12,13,13,14,14,15,15,17,17,19,19,20,20,21,21,22,22,23,23,24,24,25,25,26,26,28,28,29,29,30,30],"right_children":[2,4,6,8,10,12,14,16,18,20,22,24,26,28,30,32,-1,34,-1,36,38,40,42,44,46,48,50,-1,52,54,56,-1,-1,-1,-1,-1,-1,-1,-1,-1,-1,-1,-1,-1,-1,-1,-1,-1,-1,-1,-1,-1,-1,-1,-1,-1,-1],"split_conditions":[1.075E1,1.1E1,6E0,2.75E0,5.5E0,3.0078125E-1,4.1666666E-1,7.25E0,8.25E0,4.9E1,3.846154E-1,-5.46875E-1,5.154678E0,-2E0,8.379698E0,3.5376377E0,2.5860235E-1,9.5E0,-4.382636E-2,5.774847E0,6.937085E1,8.786458E1,7.469642E1,-6.015625E-1,5.714286E-1,6.953125E-1,4.5E1,-8.858344E-1,-1.0493164E0,4.681278E1,1.325E1,-1.8850173E-1,-4.0529594E-1,-4.621669E-1,-3.993584E-1,-1.380375E-1,-3.8833433E-1,-2.8792882E-1,2.7114826E-1,1.8182506E-1,-6.03105E-1,-3.910573E-1,1.4263411E-1,-4.0279704E-1,-1.7648225E-1,2.2780602E-1,-2.3498163E-1,2.4819463E-1,-2.9055136E-1,-4.150894E-1,-6.604116E-2,-5.474349E-1,4.2908874E-1,-3.5943946E-1,4.343526E-1,-2.1997055E-1,2.7228615E-1],"split_indices":[9,6,0,0,0,7,3,9,0,6,3,4,5,8,5,5,0,6,0,5,2,2,1,7,3,7,6,0,4,2,0,0,0,0,0,0,0,0,0,0,0,0,0,0,0,0,0,0,0,0,0,0,0,0,0,0,0],"split_type":[0,0,0,0,0,0,0,0,0,0,0,0,0,0,0,0,0,0,0,0,0,0,0,0,0,0,0,0,0,0,0,0,0,0,0,0,0,0,0,0,0,0,0,0,0,0,0,0,0,0,0,0,0,0,0,0,0],"sum_hessian":[2.771968E3,1.3649547E3,1.4070133E3,1.0884917E3,2.7646304E2,6.390918E2,7.679216E2,2.8940983E1,1.0595508E3,2.1254753E2,6.391551E1,4.8740976E2,1.5168202E2,6.0875E2,1.5917159E2,2.6969238E1,1.971744E0,1.057931E3,1.6196707E0,2.0096516E2,1.1582366E1,3.5502052E1,2.841346E1,1.0499446E2,3.8241528E2,2.1898996E1,1.2978302E2,3.5943096E0,6.0515564E2,4.975473E1,1.0941686E2,6.98794E0,1.9981298E1,9.757074E2,8.222366E1,1.4731982E1,1.8623318E2,5.1065717E0,6.475794E0,3.321235E1,2.289702E0,2.7086403E1,1.327056E0,6.631797E1,3.867649E1,2.8901813E2,9.3397156E1,1.3589569E1,8.309427E0,1.1086764E2,1.8915384E1,5.049905E0,6.001058E2,2.6818368E0,4.707289E1,7.512305E1,3.429381E1],"tree_param":{"num_deleted":"0","num_feature":"10","num_nodes":"57","size_leaf_vector":"1"}},{"base_weights":[-2.3993963E-1,-7.15951E-1,4.4127914E-1,-9.390842E-1,-3.076406E-1,6.40409E-1,-3.5445544E-1,-9.827909E-1,-7.0409113E-1,-6.739771E-1,7.3115274E-2,-1.2966939E0,6.9350207E-1,-6.749521E-1,2.9791865E-1,-6.2580466E-1,-9.930483E-1,5.015032E-1,-7.3137957E-1,-4.3728012E-1,-8.328091E-1,3.9015484E-1,-4.8479807E-1,-2.1049667E-2,-1.4044453E0,7.460079E-1,-5.985602E-1,-1.0871603E0,1.4703906E-1,8.4740686E-1,-2.226852E-1,-3.4515214E-1,8.5702665E-2,-1.1238712E-1,-4.4817445E-1,-2.6575524E-1,-4.3699384E-1,1.440623E-1,-2.2322515E-1,-4.3015367E-1,-2.5786018E-1,3.945044E-1,-5.8970176E-2,-2.9840165E-1,2.007371E-1,-6.54857E-1,-1.3102098E-1,2.3840886E-1,4.4871926E-1,5.307877E-1,-5.0983953E-1,2.3712285E-1,-2.6787013E-1,4.3238503E-1,1.0612326E-1,3.0624238E-1,-3.278032E-1],"categories":[],"categories_nodes":[],"categories_segments":[],"categories_sizes":[],"default_left":[0,0,0,0,0,0,0,0,0,0,0,0,0,0,0,0,0,0,0,0,0,0,0,0,0,0,0,0,0,0,0,0,0,0,0,0,0,0,0,0,0,0,0,0,0,0,0,0,0,0,0,0,0,0,0,0,0],"id":4,"left_children":[1,3,5,7,9,11,13,15,17,19,21,23,25,27,29,31,33,-1,35,37,39,41,43,-1,45,47,-1,49,51,53,55,-1,-1,-1,-1,-1,-1,-1,-1,-1,-1,-1,-1,-1,-1,-1,-1,-1,-1,-1,-1,-1,-1,-1,-1,-1,-1],"loss_changes":[6.903126E2,1.1386658E2,1.3901505E2,7.6244507E0,6.2015453E1,7.2987335E1,3.6991257E1,1.8693848E0,7.2916794E0,8.151489E0,3.8880047E1,2.4996033E0,7.355011E1,4.0243076E1,1.6969505E1,2.6474657E0,1.1703491E0,0E0,3.7871552E0,4.3018627E0,3.751358E0,3.5623917E1,1.3526415E1,0E0,5.659256E-1,3.5649353E1,0E0,9.531029E0,1.1704077E1,1.7679291E0,1.4617847E1,0E0,0E0,0E0,0E0,0E0,0E0,0E0,0E0,0E0,0E0,0E0,0E0,0E0,0E0,0E0,0E0,0E0,0E0,0E0,0E0,0E0,0E0,0E0,0E0,0E0,0E0],"parents":[2147483647,0,0,1,1,2,2,3,3,4,4,5,5,6,6,7,7,8,8,9,9,10,10,11,11,12,12,13,13,14,14,15,15,16,16,18,18,19,19,20,20,21,21,22,22,24,24,25,25,27,27,28,28,29,29,30,30],"right_children":[2,4,6,8,10,12,14,16,18,20,22,24,26,28,30,32,34,-1,36,38,40,42,44,-1,46,48,-1,50,52,54,56,-1,-1,-1,-1,-1,-1,-1,-1,-1,-1,-1,-1,-1,-1,-1,-1,-1,-1,-1,-1,-1,-1,-1,-1,-1,-1],"split_conditions":[7.010793E1,8.75E0,8.678255E1,1.05E1,4.5E0,-1E0,1.025E1,2.75E0,1.8372461E0,1.6248962E1,3.9534885E-1,2.25E0,2E0,7.94539E1,1.6066885E1,7.5E0,6.316544E-1,5.015032E-1,4.7058824E-1,9.75E0,3.35E1,1.400651E1,2.15E1,-2.1049667E-2,8.168132E1,8.5E0,-5.985602E-1,1.1111876E0,1.0447864E2,1.12283554E2,9.2931694E1,-3.4515214E-1,8.5702665E-2,-1.1238712E-1,-4.4817445E-1,-2.6575524E-1,-4.3699384E-1,1.440623E-1,-2.2322515E-1,-4.3015367E-1,-2.5786018E-1,3.945044E-1,-5.8970176E-2,-2.9840165E-1,2.007371E-1,-6.54857E-1,-1.3102098E-1,2.3840886E-1,4.4871926E-1,5.307877E-1,-5.0983953E-1,2.3712285E-1,-2.6787013E-1,4.3238503E-1,1.0612326E-1,3.0624238E-1,-3.278032E-1],"split_indices":[2,9,2,6,0,8,0,0,5,5,3,0,8,1,5,6,5,0,3,9,6,5,9,0,5,0,0,5,2,2,2,0,0,0,0,0,0,0,0,0,0,0,0,0,0,0,0,0,0,0,0,0,0,0,0,0,0],"split_type":[0,0,0,0,0,0,0,0,0,0,0,0,0,0,0,0,0,0,0,0,0,0,0,0,0,0,0,0,0,0,0,0,0,0,0,0,0,0,0,0,0,0,0,0,0,0,0,0,0,0,0,0,0,0,0,0,0],"sum_hessian":[2.1268599E3,1.251974E3,8.748858E2,8.087235E2,4.432505E2,6.9992676E2,1.7495906E2,6.792134E2,1.2951016E2,2.2551027E2,2.177402E2,1.804731E1,6.8187946E2,1.1729839E2,5.7660667E1,2.0703032E1,6.585103E2,1.3256699E0,1.2818448E2,9.2064964E1,1.3344531E2,1.3903369E2,7.870653E1,1.5461444E0,1.6501165E1,6.6525006E2,1.6629425E1,7.790725E1,3.9391148E1,2.7746737E1,2.991393E1,1.7701303E1,3.0017288E0,2.8933342E0,6.55617E2,8.293269E1,4.525179E1,6.30956E0,8.57554E1,8.872667E1,4.471864E1,7.155633E1,6.7477356E1,6.6294914E1,1.2411607E1,1.5487417E1,1.0137483E0,3.5916022E2,3.060898E2,1.0532833E0,7.6853966E1,2.6247974E1,1.3143172E1,2.2923307E1,4.8234296E0,1.0613763E1,1.9300167E1],"tree_param":{"num_deleted":"0","num_feature":"10","num_nodes":"57","size_leaf_vector":"1"}},{"base_weights":[-2.0064056E-1,-8.406681E-1,1.6458422E-1,-9.470225E-1,-5.046971E-1,-2.4930624E-2,6.850238E-1,-4.110065E-1,-9.6597385E-1,-3.4182647E-1,-8.033861E-1,3.9041337E-1,-2.0763595E-1,-6.9727254E-1,7.3625314E-1,-7.6000696E-1,2.0952377E-1,-3.0889636E-1,-9.7216594E-1,-5.817242E-1,8.4359385E-2,1.6394907E-1,-8.3689505E-1,4.5740062E-1,-1.2030474E0,-1.18903555E-1,-8.995358E-1,8.318122E-1,-7.783291E-2,-5.6806978E-2,-4.102935E-1,6.0595864E-1,-1.0038399E-1,-3.5944763E-1,4.2861715E-1,-4.46553E-1,-3.631698E-1,6.099525E-1,-2.8714654E-1,-1.7860137E-1,2.9182073E-1,-4.0536585E-1,-1.2425923E-1,-5.3124326E-1,2.3523608E-1,-9.589909E-2,-5.885862E-1,-3.4884343E-1,1.7289738E-3,-2.883845E-1,-5.190295E-1,8.5775234E-2,4.0908146E-1,1.7653841E-1,-3.218913E-1],"categories":[],"categories_nodes":[],"categories_segments":[],"categories_sizes":[],"default_left":[0,0,0,0,0,0,0,0,0,0,0,0,0,0,0,0,0,0,0,0,0,0,0,0,0,0,0,0,0,0,0,0,0,0,0,0,0,0,0,0,0,0,0,0,0,0,0,0,0,0,0,0,0,0,0],"id":5,"left_children":[1,3,5,7,9,11,13,15,17,19,21,23,25,-1,27,29,31,33,35,37,39,-1,41,43,45,47,49,51,53,-1,-1,-1,-1,-1,-1,-1,-1,-1,-1,-1,-1,-1,-1,-1,-1,-1,-1,-1,-1,-1,-1,-1,-1,-1,-1],"loss_changes":[3.9127585E2,2.1250519E1,1.0517656E2,4.2833557E0,6.9424706E0,5.9465103E1,3.3724808E1,3.9435701E0,1.5072937E0,1.0042622E1,2.3243217E0,2.6106026E1,3.329933E1,0E0,2.1764557E1,9.813566E-1,3.7800446E0,4.229361E0,6.636658E-1,7.7092495E0,1.0051978E1,0E0,1.5603485E0,2.528646E1,7.530937E-1,3.89476E1,3.3124962E0,1.2197479E1,9.336987E0,0E0,0E0,0E0,0E0,0E0,0E0,0E0,0E0,0E0,0E0,0E0,0E0,0E0,0E0,0E0,0E0,0E0,0E0,0E0,0E0,0E0,0E0,0E0,0E0,0E0,0E0],"parents":[2147483647,0,0,1,1,2,2,3,3,4,4,5,5,6,6,7,7,8,8,9,9,10,10,11,11,12,12,14,14,15,15,16,16,17,17,18,18,19,19,20,20,22,22,23,23,24,24,25,25,26,26,27,27,28,28],"right_children":[2,4,6,8,10,12,14,16,18,20,22,24,26,-1,28,30,32,34,36,38,40,-1,42,44,46,48,50,52,54,-1,-1,-1,-1,-1,-1,-1,-1,-1,-1,-1,-1,-1,-1,-1,-1,-1,-1,-1,-1,-1,-1,-1,-1,-1,-1],"split_conditions":[9.5E0,1.05E1,9.75E0,2.75E0,3.529412E-1,8.3069E0,2.8333752E0,4.25E0,8.9836717E-1,4.5E0,1.6019925E0,2E0,5.46875E-1,-6.9727254E-1,9.588164E1,3E0,3.5376377E0,5.5E0,6.5E0,3.5959947E0,1.775E1,1.6394907E-1,4.6875E-2,-1E0,-4.53125E-1,-4.453125E-1,8.515625E-1,1.575E1,2.3809524E-1,-5.6806978E-2,-4.102935E-1,6.0595864E-1,-1.0038399E-1,-3.5944763E-1,4.2861715E-1,-4.46553E-1,-3.631698E-1,6.099525E-1,-2.8714654E-1,-1.7860137E-1,2.9182073E-1,-4.0536585E-1,-1.2425923E-1,-5.3124326E-1,2.3523608E-1,-9.589909E-2,-5.885862E-1,-3.4884343E-1,1.7289738E-3,-2.883845E-1,-5.190295E-1,8.5775234E-2,4.0908146E-1,1.7653841E-1,-3.218913E-1],"split_indices":[9,6,0,0,3,5,1,9,5,0,5,8,7,0,2,9,5,9,9,5,6,0,4,8,7,7,7,9,3,0,0,0,0,0,0,0,0,0,0,0,0,0,0,0,0,0,0,0,0,0,0,0,0,0,0],"split_type":[0,0,0,0,0,0,0,0,0,0,0,0,0,0,0,0,0,0,0,0,0,0,0,0,0,0,0,0,0,0,0,0,0,0,0,0,0,0,0,0,0,0,0,0,0,0,0,0,0,0,0,0,0,0,0],"sum_hessian":[1.6722875E3,6.0709674E2,1.0651908E3,4.5974258E2,1.4735417E2,7.815473E2,2.836435E2,1.647431E1,4.4326825E2,9.674499E1,5.0609173E1,2.3841704E2,5.4313025E2,5.7016835E0,2.779418E2,1.0400218E1,6.0740914E0,4.613263E0,4.38655E2,6.166765E1,3.5077343E1,1.1363707E0,4.9472805E1,2.294828E2,8.934243E0,4.824327E2,6.0697533E1,2.4872429E2,2.9217524E1,2.3631225E0,8.037095E0,1.0917542E0,4.9823375E0,3.5869584E0,1.0263046E0,3.8643222E2,5.2222767E1,1.0923729E0,6.0575275E1,1.9089148E1,1.5988195E1,4.386634E1,5.6064615E0,8.149325E0,2.2133348E2,1.1466575E0,7.7875857E0,7.5173744E1,4.0725897E2,3.1809109E1,2.8888422E1,2.711884E1,2.2160545E2,1.7037222E1,1.2180304E1],"tree_param":{"num_deleted":"0","num_feature":"10","num_nodes":"55","size_leaf_vector":"1"}},{"base_weights":[-1.6016625E-1,-8.319517E-1,9.1648206E-2,-9.174898E-1,-4.464706E-1,-2.8795743E-1,2.8156915E-1,-3.6851823E-1,-9.4250715E-1,7.5088516E-2,-7.2062886E-1,-5.8760095E-1,3.990447E-2,5.073119E-1,-1.8380702E-1,-5.8093774E-1,3.96281E-1,-2.4545799E-1,-9.4855976E-1,9.230529E-1,-4.2766017E-1,5.2246493E-1,-7.916106E-1,-6.139979E-1,5.9656936E-1,1.9675823E-1,-3.496558E-1,-1.2810773E0,5.516716E-1,-1.1831789E0,-7.412792E-2,2.5749393E-2,-4.1148135E-1,-2.9939127E-1,2.092669E-1,-3.8494143E-1,-4.448095E-1,6.616237E-1,-6.0578506E-2,-3.0148575E-1,4.007832E-1,-2.542267E-1,5.9699416E-1,-4.0997982E-1,-1.6146706E-1,1.9066013E-2,-3.0040932E-1,-8.816333E-2,6.114717E-1,-2.623943E-1,1.343188E-1,9.989419E-2,-2.619851E-1,-6.216761E-1,-5.906961E-2,2.67142E-1,-4.739055E-1,-6.897829E-1,-3.030949E-1,5.6701675E-2,-2.5642195E-1],"categories":[],"categories_nodes":[],"categories_segments":[],"categories_sizes":[],"default_left":[0,0,0,0,0,0,0,0,0,0,0,0,0,0,0,0,0,0,0,0,0,0,0,0,0,0,0,0,0,0,0,0,0,0,0,0,0,0,0,0,0,0,0,0,0,0,0,0,0,0,0,0,0,0,0,0,0,0,0,0,0],"id":6,"left_children":[1,3,5,7,9,11,13,15,17,19,21,23,25,27,29,31,-1,33,35,37,39,41,43,45,47,49,51,53,55,57,59,-1,-1,-1,-1,-1,-1,-1,-1,-1,-1,-1,-1,-1,-1,-1,-1,-1,-1,-1,-1,-1,-1,-1,-1,-1,-1,-1,-1,-1,-1],"loss_changes":[2.3528468E2,1.2093414E1,7.3057175E1,3.9015808E0,1.0179061E1,3.3233177E1,7.10244E1,4.5252113E0,1.0128174E0,1.118145E1,4.517189E0,5.889187E0,9.989413E0,3.6795776E1,2.4165781E1,2.9316282E0,0E0,1.4700358E0,2.4102783E-1,5.8320045E0,5.889022E0,3.473104E0,1.9681549E0,6.123619E0,2.8999357E0,9.407656E0,6.372259E0,1.1248074E0,3.0575424E1,2.8552036E0,1.9957909E1,0E0,0E0,0E0,0E0,0E0,0E0,0E0,0E0,0E0,0E0,0E0,0E0,0E0,0E0,0E0,0E0,0E0,0E0,0E0,0E0,0E0,0E0,0E0,0E0,0E0,0E0,0E0,0E0,0E0,0E0],"parents":[2147483647,0,0,1,1,2,2,3,3,4,4,5,5,6,6,7,7,8,8,9,9,10,10,11,11,12,12,13,13,14,14,15,15,17,17,18,18,19,19,20,20,21,21,22,22,23,23,24,24,25,25,26,26,27,27,28,28,29,29,30,30],"right_children":[2,4,6,8,10,12,14,16,18,20,22,24,26,28,30,32,-1,34,36,38,40,42,44,46,48,50,52,54,56,58,60,-1,-1,-1,-1,-1,-1,-1,-1,-1,-1,-1,-1,-1,-1,-1,-1,-1,-1,-1,-1,-1,-1,-1,-1,-1,-1,-1,-1,-1,-1],"split_conditions":[1.375E1,7.25E0,4E0,1.8372461E0,6.758224E0,6.1159077E1,3.2142857E-1,4.75E0,2.5E0,2.3577156E1,2.75E0,8.168132E1,8.320573E1,-2E0,-4.453125E-1,1.957306E1,3.96281E-1,6.8811517E0,5.9424577E0,4.2553192E-1,6.5E0,2.5779835E1,0E0,1.6E1,-1.5234375E-1,6.937085E1,2.75E0,4.5423504E1,2E0,3.475E1,1.5625E-1,2.5749393E-2,-4.1148135E-1,-2.9939127E-1,2.092669E-1,-3.8494143E-1,-4.448095E-1,6.616237E-1,-6.0578506E-2,-3.0148575E-1,4.007832E-1,-2.542267E-1,5.9699416E-1,-4.0997982E-1,-1.6146706E-1,1.9066013E-2,-3.0040932E-1,-8.816333E-2,6.114717E-1,-2.623943E-1,1.343188E-1,9.989419E-2,-2.619851E-1,-6.216761E-1,-5.906961E-2,2.67142E-1,-4.739055E-1,-6.897829E-1,-3.030949E-1,5.6701675E-2,-2.5642195E-1],"split_indices":[6,9,0,5,5,1,3,0,0,1,0,5,2,8,7,2,0,5,5,3,0,2,4,6,4,2,0,5,8,6,7,0,0,0,0,0,0,0,0,0,0,0,0,0,0,0,0,0,0,0,0,0,0,0,0,0,0,0,0,0,0],"split_type":[0,0,0,0,0,0,0,0,0,0,0,0,0,0,0,0,0,0,0,0,0,0,0,0,0,0,0,0,0,0,0,0,0,0,0,0,0,0,0,0,0,0,0,0,0,0,0,0,0,0,0,0,0,0,0,0,0,0,0,0,0],"sum_hessian":[1.3894061E3,3.7818585E2,1.01122034E3,3.0837695E2,6.980891E1,3.3704114E2,6.741792E2,1.4126213E1,2.9425073E2,2.4302296E1,4.550661E1,1.7568489E2,1.6135626E2,4.5390884E2,2.2027032E2,1.25303335E1,1.59588E0,2.890772E0,2.9135995E2,8.734381E0,1.5567914E1,2.1145322E0,4.339208E1,1.72325E2,3.3598866E0,1.15390144E2,4.596612E1,1.0311593E1,4.4359726E2,2.0815592E1,1.9945473E2,4.5847735E0,7.9455595E0,1.8569996E0,1.0337726E0,9.41241E1,1.9723587E2,5.499121E0,3.2352598E0,1.3566174E1,2.0017412E0,1.0254396E0,1.0890926E0,3.3140026E1,1.0252055E1,1.3020871E1,1.5930412E2,2.011542E0,1.3483446E0,1.27690935E1,1.0262105E2,1.3304547E1,3.266157E1,9.297998E0,1.0135945E0,4.3290372E2,1.0693558E1,1.1154493E1,9.6610985E0,1.4261975E2,5.6834988E1],"tree_param":{"num_deleted":"0","num_feature":"10","num_nodes":"61","size_leaf_vector":"1"}},{"base_weights":[-1.3063656E-1,-6.204118E-1,1.073191E-1,-8.7743616E-1,-3.9473388E-1,-1.0557894E0,1.4850803E-1,-2.1157445E-1,-9.14479E-1,-9.028393E-1,-2.34763E-1,-6.816943E-2,-1.1157354E0,4.1626357E-2,5.505398E-1,-4.7031498E-1,3.203294E-1,-2.4337973E-2,-9.303486E-1,1.13952935E-1,-9.559894E-1,-4.075406E-2,-7.9393035E-1,-1.1473886E0,-8.9755975E-2,8.655369E-2,-9.5216453E-1,8.5142857E-1,1.8441088E-1,-5.681365E-2,-3.5694453E-1,-3.0374703E-1,4.278212E-1,-4.321685E-1,-2.969136E-1,-2.52682E-1,2.9652435E-1,-2.0223959E-1,-4.5685095E-1,1.0746537E-1,-3.023632E-1,2.092232E-2,-3.7605065E-1,-5.3374577E-1,-1.6377047E-1,5.7425644E-2,-4.5389327E-1,-5.642668E-1,-4.4124153E-2,3.9416304E-1,-2.9202318E-1,-6.470388E-1,1.2680589E-1],"categories":[],"categories_nodes":[],"categories_segments":[],"categories_sizes":[],"default_left":[0,0,0,0,0,0,0,0,0,0,0,0,0,0,0,0,0,0,0,0,0,0,0,0,0,0,0,0,0,0,0,0,0,0,0,0,0,0,0,0,0,0,0,0,0,0,0,0,0,0,0,0,0],"id":7,"left_children":[1,3,5,7,9,11,13,15,17,19,21,-1,23,25,27,29,-1,31,33,35,37,39,41,43,-1,45,47,49,51,-1,-1,-1,-1,-1,-1,-1,-1,-1,-1,-1,-1,-1,-1,-1,-1,-1,-1,-1,-1,-1,-1,-1,-1],"loss_changes":[1.3861462E2,2.2209564E1,3.852722E1,4.2706757E0,1.6765915E1,1.3226299E0,3.3253616E1,2.9245036E0,2.3950195E0,2.792904E0,1.7347996E1,0E0,5.1503754E-1,2.7445417E1,1.775132E1,9.0736365E-1,0E0,3.1950748E0,7.320404E-1,1.6071182E0,9.631462E-1,2.1334259E1,1.4845562E0,3.139038E-1,0E0,2.653676E1,6.730547E0,3.836853E0,1.2191346E1,0E0,0E0,0E0,0E0,0E0,0E0,0E0,0E0,0E0,0E0,0E0,0E0,0E0,0E0,0E0,0E0,0E0,0E0,0E0,0E0,0E0,0E0,0E0,0E0],"parents":[2147483647,0,0,1,1,2,2,3,3,4,4,5,5,6,6,7,7,8,8,9,9,10,10,12,12,13,13,14,14,15,15,17,17,18,18,19,19,20,20,21,21,22,22,23,23,25,25,26,26,27,27,28,28],"right_children":[2,4,6,8,10,12,14,16,18,20,22,-1,24,26,28,30,-1,32,34,36,38,40,42,44,-1,46,48,50,52,-1,-1,-1,-1,-1,-1,-1,-1,-1,-1,-1,-1,-1,-1,-1,-1,-1,-1,-1,-1,-1,-1,-1,-1],"split_conditions":[5.0495586E1,9.25E0,-1E0,2.75E0,-4.453125E-1,2.25E0,1.05E1,7.5E0,8.9836717E-1,1.956264E0,3.0029297E-1,-6.816943E-2,6.775E1,1.0447864E2,1.7609518E1,9.7325945E0,3.203294E-1,5.5E0,6.25E0,1.2E1,2.75E0,5.294118E-1,2.4564722E0,3.2916667E0,-8.9755975E-2,2E0,9.220019E1,3.6E0,1.7380387E0,-5.681365E-2,-3.5694453E-1,-3.0374703E-1,4.278212E-1,-4.321685E-1,-2.969136E-1,-2.52682E-1,2.9652435E-1,-2.0223959E-1,-4.5685095E-1,1.0746537E-1,-3.023632E-1,2.092232E-2,-3.7605065E-1,-5.3374577E-1,-1.6377047E-1,5.7425644E-2,-4.5389327E-1,-5.642668E-1,-4.4124153E-2,3.9416304E-1,-2.9202318E-1,-6.470388E-1,1.2680589E-1],"split_indices":[2,6,8,0,4,0,0,6,5,5,7,0,6,2,5,1,0,9,9,6,0,3,5,3,0,8,1,3,1,0,0,0,0,0,0,0,0,0,0,0,0,0,0,0,0,0,0,0,0,0,0,0,0],"split_type":[0,0,0,0,0,0,0,0,0,0,0,0,0,0,0,0,0,0,0,0,0,0,0,0,0,0,0,0,0,0,0,0,0,0,0,0,0,0,0,0,0,0,0,0,0,0,0,0,0,0,0,0,0],"sum_hessian":[1.1877964E3,3.878637E2,7.999326E2,1.799878E2,2.0787593E2,2.6516508E1,7.7341614E2,9.838995E0,1.7014879E2,4.8663944E1,1.5921199E2,1.867771E0,2.4648737E1,6.118555E2,1.6156056E2,8.068805E0,1.77019E0,3.0246813E0,1.6712411E2,2.360587E0,4.6303356E1,1.1899747E2,4.0214527E1,2.3581863E1,1.066873E0,5.862646E2,2.5590965E1,8.795373E1,7.3606834E1,4.57979E0,3.489015E0,1.9986867E0,1.0259947E0,1.4813368E2,1.8990427E1,1.0405686E0,1.3200183E0,5.7465744E0,4.055678E1,8.2899734E1,3.6097733E1,1.8972816E0,3.8317245E1,2.1981731E1,1.6001332E0,5.659315E2,2.0333086E1,1.8564075E1,7.0268903E0,8.69507E1,1.0030289E0,3.388672E0,7.021816E1],"tree_param":{"num_deleted":"0","num_feature":"10","num_nodes":"53","size_leaf_vector":"1"}},{"base_weights":[-1.028188E-1,-7.5051177E-1,1.7506238E-2,5.0238203E-2,-7.927988E-1,-6.6036314E-1,8.51297E-2,-5.2992576E-1,9.0531003E-1,-8.903627E-1,-5.617553E-1,-7.470229E-1,9.518472E-1,1.9594133E-1,-3.818772E-1,-3.5824436E-1,8.5148305E-2,1.5307777E0,-2.3106468E-1,1.2116286E-1,-9.15019E-1,-6.332324E-1,6.7082494E-1,-9.910688E-1,-5.129441E-1,6.745614E-1,1.439329E-2,3.2067472E-1,-2.123093E-1,-2.263796E-1,-9.6387666E-1,1.9434169E-1,8.5843027E-1,3.2677522E-1,-2.513279E-1,-2.4321638E-1,-4.2225784E-1,-4.2488715E-1,-1.4142732E-1,4.8674458E-1,-1.7832257E-2,-4.5825073E-1,-1.6293472E-1,-3.7444797E-1,-9.361945E-2,-5.4149255E-2,2.0893955E-1,-3.6615717E-1,-4.283982E-2,-2.0270239E-1,6.5427355E-2,-4.4819927E-1,-9.914993E-3],"categories":[],"categories_nodes":[],"categories_segments":[],"categories_sizes":[],"default_left":[0,0,0,0,0,0,0,0,0,0,0,0,0,0,0,0,0,0,0,0,0,0,0,0,0,0,0,0,0,0,0,0,0,0,0,0,0,0,0,0,0,0,0,0,0,0,0,0,0,0,0,0,0],"id":8,"left_children":[1,3,5,7,9,11,13,15,17,19,21,23,25,27,29,-1,-1,31,-1,33,35,37,39,41,43,-1,-1,45,47,49,51,-1,-1,-1,-1,-1,-1,-1,-1,-1,-1,-1,-1,-1,-1,-1,-1,-1,-1,-1,-1,-1,-1],"loss_changes":[8.242372E1,5.6503906E0,4.097989E1,5.069293E0,3.0487747E0,1.2041229E1,4.2129665E1,1.3264333E0,4.432356E0,2.8290558E0,4.7817297E0,3.9199944E0,2.255498E0,3.3548103E1,1.39166565E1,0E0,0E0,4.611478E-1,0E0,1.8350953E0,4.235916E-1,4.3903065E0,9.7575724E-1,2.637596E-1,3.879033E0,0E0,0E0,3.1981422E1,1.0801224E1,1.0441996E1,9.650593E-1,0E0,0E0,0E0,0E0,0E0,0E0,0E0,0E0,0E0,0E0,0E0,0E0,0E0,0E0,0E0,0E0,0E0,0E0,0E0,0E0,0E0,0E0],"parents":[2147483647,0,0,1,1,2,2,3,3,4,4,5,5,6,6,7,7,8,8,9,9,10,10,11,11,12,12,13,13,14,14,17,17,19,19,20,20,21,21,22,22,23,23,24,24,27,27,28,28,29,29,30,30],"right_children":[2,4,6,8,10,12,14,16,18,20,22,24,26,28,30,-1,-1,32,-1,34,36,38,40,42,44,-1,-1,46,48,50,52,-1,-1,-1,-1,-1,-1,-1,-1,-1,-1,-1,-1,-1,-1,-1,-1,-1,-1,-1,-1,-1,-1],"split_conditions":[1.8232607E1,2.0671022E0,-6.5625E-1,-1.5039062E-1,1.191164E1,5.6E1,3.0029297E-1,4E0,6.484375E-1,2.5E0,7.8504944E1,6.673785E1,-7.5E-1,6E-1,8.984375E-1,-3.5824436E-1,8.5148305E-2,7E0,-2.3106468E-1,-4.53125E-1,3.955932E0,-2.96875E-1,8.5947174E1,-7.006836E-1,-1E0,6.745614E-1,1.439329E-2,3.5E0,1.975E1,9.375E-2,4.7676876E1,1.9434169E-1,8.5843027E-1,3.2677522E-1,-2.513279E-1,-2.4321638E-1,-4.2225784E-1,-4.2488715E-1,-1.4142732E-1,4.8674458E-1,-1.7832257E-2,-4.5825073E-1,-1.6293472E-1,-3.7444797E-1,-9.361945E-2,-5.4149255E-2,2.0893955E-1,-3.6615717E-1,-4.283982E-2,-2.0270239E-1,6.5427355E-2,-4.4819927E-1,-9.914993E-3],"split_indices":[1,5,4,4,1,6,7,0,7,0,2,2,7,3,7,0,0,6,0,4,5,4,2,4,4,0,0,0,6,4,5,0,0,0,0,0,0,0,0,0,0,0,0,0,0,0,0,0,0,0,0,0,0],"split_type":[0,0,0,0,0,0,0,0,0,0,0,0,0,0,0,0,0,0,0,0,0,0,0,0,0,0,0,0,0,0,0,0,0,0,0,0,0,0,0,0,0,0,0,0,0,0,0,0,0,0,0,0,0],"sum_hessian":[1.056445E3,1.6469221E2,8.9175275E2,8.25159E0,1.5644063E2,8.0095566E1,8.1165717E2,5.142603E0,3.1089866E0,1.07986855E2,4.8453773E1,7.651914E1,3.5764236E0,6.564701E2,1.5518709E2,3.675283E0,1.4673202E0,2.1029665E0,1.00602E0,2.4764497E0,1.0551041E2,4.625756E1,2.1962135E0,3.587876E1,4.064038E1,1.8477019E0,1.7287217E0,5.0300174E2,1.5346834E2,1.23562775E2,3.1624323E1,1.0850115E0,1.0179551E0,1.2739959E0,1.2024539E0,7.6043935E0,9.790601E1,2.2429497E1,2.3828064E1,1.0604848E0,1.1357288E0,3.3794792E1,2.083969E0,1.901102E1,2.162936E1,1.2361785E2,3.7938388E2,2.4045187E1,1.2942316E2,7.696431E1,4.6598457E1,3.052574E1,1.0985832E0],"tree_param":{"num_deleted":"0","num_feature":"10","num_nodes":"53","size_leaf_vector":"1"}},{"base_weights":[-7.8679144E-2,-7.7439564E-1,2.5884742E-3,-4.196774E-2,-8.347189E-1,3.7981078E-2,-1.0319779E0,-5.6143236E-1,4.0594342E-1,-5.9556365E-1,-4.4404507E-1,-9.642648E-1,7.437264E-2,-1.7621394E-1,-4.754447E-1,-3.2416296E-1,-3.955362E-3,7.5170547E-1,-3.413629E-1,-8.678103E-1,2.3522204E-1,-4.238554E-2,-1.0179824E0,3.642943E-1,-5.0362967E-2,1.0442591E-1,-3.1036356E-1,-4.0400803E-1,-3.1080844E-2,-3.0335447E-1,5.076975E-1,-3.6317497E-2,-4.7340655E-1,-4.625962E-3,2.3718841E-1,8.608758E-4,-3.1134483E-1],"categories":[],"categories_nodes":[],"categories_segments":[],"categories_sizes":[],"default_left":[0,0,0,0,0,0,0,0,0,0,0,0,0,0,0,0,0,0,0,0,0,0,0,0,0,0,0,0,0,0,0,0,0,0,0,0,0],"id":9,"left_children":[1,3,5,7,9,11,13,15,17,19,-1,21,23,-1,-1,-1,-1,-1,25,27,29,-1,31,33,35,-1,-1,-1,-1,-1,-1,-1,-1,-1,-1,-1,-1],"loss_changes":[5.43582E1,4.407894E0,3.1595985E1,2.2532904E0,2.788765E0,3.0500914E1,3.5310745E-2,3.8452673E-1,5.53581E0,8.937251E0,0E0,1.2736969E0,2.9165588E1,0E0,0E0,0E0,0E0,0E0,9.8560625E-1,6.396198E-1,9.138143E0,0E0,7.921963E-1,1.4796963E1,1.892926E1,0E0,0E0,0E0,0E0,0E0,0E0,0E0,0E0,0E0,0E0,0E0,0E0],"parents":[2147483647,0,0,1,1,2,2,3,3,4,4,5,5,6,6,7,7,8,8,9,9,11,11,12,12,18,18,19,19,20,20,22,22,23,23,24,24],"right_children":[2,4,6,8,10,12,14,16,18,20,-1,22,24,-1,-1,-1,-1,-1,26,28,30,-1,32,34,36,-1,-1,-1,-1,-1,-1,-1,-1,-1,-1,-1,-1],"split_conditions":[9.25E0,2.75E0,2E0,5E0,5.9424577E0,-1E0,3.5376377E0,1.6455162E1,3.5376377E0,5.5E0,-4.4404507E-1,2.25E0,8.379698E0,-1.7621394E-1,-4.754447E-1,-3.2416296E-1,-3.955362E-3,7.5170547E-1,-1.09375E-1,2.96875E-1,-2.5E-1,-4.238554E-2,-9.0625E-1,3.75E0,9.588164E1,1.0442591E-1,-3.1036356E-1,-4.0400803E-1,-3.1080844E-2,-3.0335447E-1,5.076975E-1,-3.6317497E-2,-4.7340655E-1,-4.625962E-3,2.3718841E-1,8.608758E-4,-3.1134483E-1],"split_indices":[6,0,8,6,5,8,5,2,5,9,0,0,5,0,0,0,0,0,7,4,4,0,7,0,2,0,0,0,0,0,0,0,0,0,0,0,0],"split_type":[0,0,0,0,0,0,0,0,0,0,0,0,0,0,0,0,0,0,0,0,0,0,0,0,0,0,0,0,0,0,0,0,0,0,0,0,0],"sum_hessian":[9.603892E2,9.9558556E1,8.608306E2,7.7048006E0,9.185375E1,8.332871E2,2.7543535E1,3.4501019E0,4.2546988E0,3.761162E1,5.4242134E1,2.8303185E1,8.0498395E2,1.6433896E0,2.5900146E1,2.4438186E0,1.0062832E0,1.1215782E0,3.1331205E0,2.8294886E1,9.316736E0,1.8059095E0,2.6497274E1,2.4157445E2,5.634095E2,1.3101629E0,1.8229576E0,2.7151585E1,1.1433014E0,4.7375526E0,4.579184E0,1.0465252E0,2.5450748E1,7.346711E1,1.6810735E2,5.2187933E2,4.1530125E1],"tree_param":{"num_deleted":"0","num_feature":"10","num_nodes":"37","size_leaf_vector":"1"}},{"base_weights":[-5.9501663E-2,-2.6230893E-1,1.6257088E-1,-5.549566E-1,-1.14854395E-1,3.635712E-1,-1.91903E-1,-6.5171826E-1,1.04479596E-1,3.7377127E-2,-5.7099915E-1,2.861357E-1,8.8786316E-1,-8.2333195E-1,-4.8689112E-2,-5.360279E-1,-9.794336E-1,-5.809457E-1,7.747134E-1,1.9830057E-1,-2.540898E-1,-4.303746E-1,-4.383432E-1,3.6902615E-1,-2.0803228E-1,1.957513E-1,9.382987E-1,-3.3185327E-1,-1.292837E0,4.2536926E-2,-9.2958504E-1,-3.8155755E-1,-1.3965301E-1,-3.550789E-1,-7.98469E-1,-3.843377E-1,6.842536E-2,-1.8742818E-1,6.0403E-1,-9.6486026E-4,1.9947858E-1,7.892576E-2,-2.526027E-1,-2.8429064E-1,3.0797783E-2,1.24138005E-1,3.6516798E-1,1.104316E-1,-2.4739154E-1,2.868843E-1,-2.185949E-1,4.480298E-1,1.5421256E-1,5.708874E-2,-4.2968586E-1,-8.130101E-2,-6.269685E-1,-5.516297E-2,2.7644217E-1,-7.825158E-2,-5.197607E-1],"categories":[],"categories_nodes":[],"categories_segments":[],"categories_sizes":[],"default_left":[0,0,0,0,0,0,0,0,0,0,0,0,0,0,0,0,0,0,0,0,0,0,0,0,0,0,0,0,0,0,0,0,0,0,0,0,0,0,0,0,0,0,0,0,0,0,0,0,0,0,0,0,0,0,0,0,0,0,0,0,0],"id":10,"left_children":[1,3,5,7,9,11,13,15,17,19,21,23,25,27,29,31,33,35,37,39,41,43,-1,45,47,49,51,53,55,57,59,-1,-1,-1,-1,-1,-1,-1,-1,-1,-1,-1,-1,-1,-1,-1,-1,-1,-1,-1,-1,-1,-1,-1,-1,-1,-1,-1,-1,-1,-1],"loss_changes":[4.0847115E1,2.0387154E1,3.0926321E1,1.0183304E1,2.1991951E1,1.0980164E1,1.4190374E1,4.721428E0,1.0164649E1,1.12213E1,4.072098E0,1.0013224E1,1.0427628E0,6.2697945E0,1.0432985E1,7.091114E0,3.880806E0,2.3374348E0,8.077557E0,7.5636563E0,1.1335751E1,6.1238174E0,0E0,8.354027E0,5.633233E0,1.4086115E0,7.678776E-1,4.558956E0,1.368E0,1.123058E1,1.8743057E0,0E0,0E0,0E0,0E0,0E0,0E0,0E0,0E0,0E0,0E0,0E0,0E0,0E0,0E0,0E0,0E0,0E0,0E0,0E0,0E0,0E0,0E0,0E0,0E0,0E0,0E0,0E0,0E0,0E0,0E0],"parents":[2147483647,0,0,1,1,2,2,3,3,4,4,5,5,6,6,7,7,8,8,9,9,10,10,11,11,12,12,13,13,14,14,15,15,16,16,17,17,18,18,19,19,20,20,21,21,23,23,24,24,25,25,26,26,27,27,28,28,29,29,30,30],"right_children":[2,4,6,8,10,12,14,16,18,20,22,24,26,28,30,32,34,36,38,40,42,44,-1,46,48,50,52,54,56,58,60,-1,-1,-1,-1,-1,-1,-1,-1,-1,-1,-1,-1,-1,-1,-1,-1,-1,-1,-1,-1,-1,-1,-1,-1,-1,-1,-1,-1,-1,-1],"split_conditions":[7.461682E1,-3.0078125E-1,8.364727E1,3.4264393E1,3.0078125E-1,1.3E1,1.8E1,1.8293154E1,5.7322163E1,1.03896104E-1,8.4765625E-1,1.1666666E0,7.6346405E1,9.086381E1,5.46875E-1,7.5E0,7.25E0,-3.515625E-1,4E0,4.5E0,1.088389E1,1.484375E-1,-4.383432E-1,4.0450035E1,1.4143506E1,-6.25E-2,4.9804688E-2,2.5396827E-1,3.098155E1,8.301838E1,8.786458E1,-3.8155755E-1,-1.3965301E-1,-3.550789E-1,-7.98469E-1,-3.843377E-1,6.842536E-2,-1.8742818E-1,6.0403E-1,-9.6486026E-4,1.9947858E-1,7.892576E-2,-2.526027E-1,-2.8429064E-1,3.0797783E-2,1.24138005E-1,3.6516798E-1,1.104316E-1,-2.4739154E-1,2.868843E-1,-2.185949E-1,4.480298E-1,1.5421256E-1,5.708874E-2,-4.2968586E-1,-8.130101E-2,-6.269685E-1,-5.516297E-2,2.7644217E-1,-7.825158E-2,-5.197607E-1],"split_indices":[2,4,2,5,7,0,9,5,2,3,7,3,2,2,7,9,0,4,0,0,5,4,0,5,5,4,4,3,1,1,2,0,0,0,0,0,0,0,0,0,0,0,0,0,0,0,0,0,0,0,0,0,0,0,0,0,0,0,0,0,0],"split_type":[0,0,0,0,0,0,0,0,0,0,0,0,0,0,0,0,0,0,0,0,0,0,0,0,0,0,0,0,0,0,0,0,0,0,0,0,0,0,0,0,0,0,0,0,0,0,0,0,0,0,0,0,0,0,0,0,0,0,0,0,0],"sum_hessian":[9.0500256E2,4.7292432E2,4.3207825E2,1.5752551E2,3.153988E2,2.7571283E2,1.5636543E2,1.3737906E2,2.014646E1,2.3716617E2,7.823263E1,2.4157854E2,3.4134277E1,2.8030445E1,1.2833499E2,1.03483055E2,3.3896004E1,1.0026213E1,1.0120247E1,1.5300781E2,8.4158356E1,5.9531956E1,1.8700672E1,2.0709431E2,3.4484222E1,2.6500213E0,3.1484255E1,1.4528647E1,1.3501799E1,1.1715416E2,1.1180834E1,4.2288143E1,6.1194912E1,2.8954668E1,4.941336E0,7.1840415E0,2.8421712E0,3.3517666E0,6.7684803E0,8.469905E1,6.830876E1,3.52768E1,4.8881557E1,4.22202E1,1.7311756E1,1.7241428E2,3.4680042E1,1.4940972E1,1.9543247E1,1.6469818E0,1.0030395E0,2.8107471E1,3.3767838E0,8.826256E0,5.7023916E0,1.3500245E0,1.2151774E1,9.151235E1,2.5641804E1,2.97608E0,8.204754E0],"tree_param":{"num_deleted":"0","num_feature":"10","num_nodes":"61","size_leaf_vector":"1"}},{"base_weights":[-4.5285795E-2,-1.6279584E-2,-9.52927E-1,-1.8204935E-1,1.3545701E-1,-6.984282E-1,-4.8706797E-1,-3.347962E-1,-1.05917165E-2,3.1313083E-1,-1.6657545E-1,-8.3165747E-1,1.3256405E-1,-8.346379E-1,-2.7841336E-1,4.8427907E-1,-9.782263E-2,-4.2266172E-1,3.4457824E-1,-3.9597037E-1,6.1171226E-2,-5.7208452E-2,-4.0767917E-1,-4.1384286E-1,1.2423233E-1,-3.287394E-1,-9.41406E-2,2.723251E-1,-1.6974783E-1,5.1554907E-2,-1.3889538E-1,-3.6730617E-1,1.6992211E-1,-2.501071E-1,7.005973E-2,-3.4264404E-1,6.5884575E-2],"categories":[],"categories_nodes":[],"categories_segments":[],"categories_sizes":[],"default_left":[0,0,0,0,0,0,0,0,0,0,0,0,0,0,0,0,0,0,0,0,0,0,0,0,0,0,0,0,0,0,0,0,0,0,0,0,0],"id":11,"left_children":[1,3,5,7,9,11,-1,13,15,17,19,21,-1,23,25,27,29,-1,31,33,35,-1,-1,-1,-1,-1,-1,-1,-1,-1,-1,-1,-1,-1,-1,-1,-1],"loss_changes":[2.2157385E1,2.0578457E1,1.0269356E-1,1.0234981E1,2.2977173E1,1.7805247E0,0E0,5.593445E0,8.042992E0,1.0930626E1,8.324725E0,4.341793E-1,0E0,2.185234E0,5.7070446E0,3.136446E0,7.1236873E0,0E0,1.0408485E1,7.077119E0,5.762447E0,0E0,0E0,0E0,0E0,0E0,0E0,0E0,0E0,0E0,0E0,0E0,0E0,0E0,0E0,0E0,0E0],"parents":[2147483647,0,0,1,1,2,2,3,3,4,4,5,5,7,7,8,8,9,9,10,10,11,11,13,13,14,14,15,15,16,16,18,18,19,19,20,20],"right_children":[2,4,6,8,10,12,-1,14,16,18,20,22,-1,24,26,28,30,-1,32,34,36,-1,-1,-1,-1,-1,-1,-1,-1,-1,-1,-1,-1,-1,-1,-1,-1],"split_conditions":[2E0,-1.953125E-1,0E0,7.461682E1,2.5E-1,-1.015625E-1,-4.8706797E-1,-9.453125E-1,4.9803467E0,1.5312442E0,1E0,3.5376377E0,1.3256405E-1,2E0,1.4337724E1,9.444444E-1,8.2004906E1,-4.2266172E-1,-2E0,6.75E0,1.05E1,-5.7208452E-2,-4.0767917E-1,-4.1384286E-1,1.2423233E-1,-3.287394E-1,-9.41406E-2,2.723251E-1,-1.6974783E-1,5.1554907E-2,-1.3889538E-1,-3.6730617E-1,1.6992211E-1,-2.501071E-1,7.005973E-2,-3.4264404E-1,6.5884575E-2],"split_indices":[8,4,7,2,7,4,0,4,5,1,8,5,0,3,1,3,2,0,8,0,6,0,0,0,0,0,0,0,0,0,0,0,0,0,0,0,0],"split_type":[0,0,0,0,0,0,0,0,0,0,0,0,0,0,0,0,0,0,0,0,0,0,0,0,0,0,0,0,0,0,0,0,0,0,0,0,0],"sum_hessian":[8.41204E2,8.1613983E2,2.5064095E1,3.8993854E2,4.2620132E2,1.0606538E1,1.4457557E1,2.0571771E2,1.8422084E2,2.6832156E2,1.5787976E2,9.495106E0,1.111432E0,1.9453817E1,1.862639E2,2.692434E1,1.572965E2,5.865447E0,2.6245612E2,7.828727E1,7.95925E1,1.1644193E0,8.330687E0,1.8230486E1,1.2233323E0,2.3459932E1,1.6280396E2,2.3872074E1,3.0522642E0,7.8586685E1,7.870981E1,6.6045556E0,2.5585155E2,6.0695454E1,1.7591812E1,6.7282543E0,7.286424E1],"tree_param":{"num_deleted":"0","num_feature":"10","num_nodes":"37","size_leaf_vector":"1"}},{"base_weights":[-3.635256E-2,-7.166034E-1,-8.825134E-3,2.1603745E-1,-8.266365E-1,-7.83701E-1,1.1166761E-2,3.6436045E-1,-2.6081768E-1,5.167061E-2,-8.8872564E-1,-4.543052E-1,-3.97563E-1,-4.4106624E-1,2.6827125E-2,-4.1546535E-1,-1.0298569E-2,3.5487154E-1,-8.423228E-1,4.4551052E-2,-8.2685935E-1,9.113248E-2,-4.9587205E-1,2.8873159E-2,-3.2122174E-1,-2.1681757E-1,-4.6508166E-1],"categories":[],"categories_nodes":[],"categories_segments":[],"categories_sizes":[],"default_left":[0,0,0,0,0,0,0,0,0,0,0,0,0,0,0,0,0,0,0,0,0,0,0,0,0,0,0],"id":12,"left_children":[1,3,5,7,9,11,13,-1,-1,-1,15,-1,17,-1,19,-1,-1,-1,21,23,25,-1,-1,-1,-1,-1,-1],"loss_changes":[1.4963091E1,3.3679333E0,1.1926661E1,2.3928719E0,1.7391376E0,1.287447E0,1.1684585E1,0E0,0E0,0E0,7.6781845E-1,0E0,5.304652E0,0E0,1.1237517E1,0E0,0E0,0E0,2.0896215E0,1.0845861E1,5.792818E-1,0E0,0E0,0E0,0E0,0E0,0E0],"parents":[2147483647,0,0,1,1,2,2,3,3,4,4,5,5,6,6,10,10,12,12,14,14,18,18,19,19,20,20],"right_children":[2,4,6,8,10,12,14,-1,-1,-1,16,-1,18,-1,20,-1,-1,-1,22,24,26,-1,-1,-1,-1,-1,-1],"split_conditions":[7E0,2.75E0,-1E0,9.7325945E0,1.4515312E0,1.85E1,1.5312442E0,3.6436045E-1,-2.6081768E-1,5.167061E-2,6.25E0,-4.543052E-1,2.225E1,-4.4106624E-1,2E0,-4.1546535E-1,-1.0298569E-2,3.5487154E-1,-4.0234375E-1,1.12283554E2,0E0,9.113248E-2,-4.9587205E-1,2.8873159E-2,-3.2122174E-1,-2.1681757E-1,-4.6508166E-1],"split_indices":[6,0,8,1,5,9,1,0,0,0,9,0,9,0,8,0,0,0,7,2,7,0,0,0,0,0,0],"split_type":[0,0,0,0,0,0,0,0,0,0,0,0,0,0,0,0,0,0,0,0,0,0,0,0,0,0,0],"sum_hessian":[7.984111E2,3.0078806E1,7.683323E2,3.0725417E0,2.7006264E1,1.8363693E1,7.4996857E2,1.7495016E0,1.3230401E0,1.6183175E0,2.5387945E1,1.0567725E1,7.7959685E0,1.0705628E1,7.3926294E2,2.4350506E1,1.0374402E0,1.9151632E0,5.8808055E0,7.2515533E2,1.4107597E1,1.2141811E0,4.666624E0,7.0776794E2,1.7387383E1,6.53235E0,7.5752473E0],"tree_param":{"num_deleted":"0","num_feature":"10","num_nodes":"27","size_leaf_vector":"1"}},{"base_weights":[-2.9470347E-2,-7.976651E-2,3.1036595E-1,-5.9208736E-2,-7.3071104E-1,5.630618E-1,-4.0235154E-2,-5.236147E-1,-2.835485E-2,-9.6433985E-1,-2.8912076E-1,6.156465E-1,-3.9721087E-1,-1.0850863E0,1.3266109E-1,-6.65367E-1,9.1954434E-1,1.9313348E-2,-3.2316872E-1,-1.291359E-1,-4.7033006E-1,3.274974E-1,-6.943955E-1,6.6950476E-1,1.4618916E-2,9.9325776E-2,-6.3370377E-1,3.73785E-1,-8.3206064E-1,-1.9989802E-1,-5.304049E-1,1.03870094E-1,6.377913E-1,1.2852839E-1,-2.1119718E-2,-2.1568638E-1,7.1665116E-2,-7.188516E-2,-4.3871295E-1,1.0143946E-1,3.415781E-1,-2.4022307E-1,2.609755E-1,2.8059238E-1,-2.624129E-1,-1.0081228E0,-1.2538864E-1],"categories":[],"categories_nodes":[],"categories_segments":[],"categories_sizes":[],"default_left":[0,0,0,0,0,0,0,0,0,0,0,0,0,0,0,0,0,0,0,0,0,0,0,0,0,0,0,0,0,0,0,0,0,0,0,0,0,0,0,0,0,0,0,0,0,0,0],"id":13,"left_children":[1,3,5,7,9,11,13,15,17,19,21,23,-1,25,27,29,31,33,35,-1,-1,-1,37,39,41,-1,-1,43,45,-1,-1,-1,-1,-1,-1,-1,-1,-1,-1,-1,-1,-1,-1,-1,-1,-1,-1],"loss_changes":[1.3378985E1,9.07473E0,8.964539E0,9.464933E0,1.8641481E0,5.007658E0,7.9495826E0,9.0317545E0,8.739402E0,4.2047215E-1,4.0558763E0,1.8433876E0,0E0,2.9454489E0,9.142269E0,3.7966728E0,1.0787797E0,9.467284E0,6.5955677E0,0E0,0E0,0E0,8.449204E-1,1.9176216E0,2.0863593E0,0E0,0E0,7.7875776E0,5.533654E0,0E0,0E0,0E0,0E0,0E0,0E0,0E0,0E0,0E0,0E0,0E0,0E0,0E0,0E0,0E0,0E0,0E0,0E0],"parents":[2147483647,0,0,1,1,2,2,3,3,4,4,5,5,6,6,7,7,8,8,9,9,10,10,11,11,13,13,14,14,15,15,16,16,17,17,18,18,22,22,23,23,24,24,27,27,28,28],"right_children":[2,4,6,8,10,12,14,16,18,20,22,24,-1,26,28,30,32,34,36,-1,-1,-1,38,40,42,-1,-1,44,46,-1,-1,-1,-1,-1,-1,-1,-1,-1,-1,-1,-1,-1,-1,-1,-1,-1,-1],"split_conditions":[1.05E1,8.984375E-1,2.5123001E1,-6.015625E-1,7.907138E1,3.6875E0,1.575E1,4.7676876E1,1.15E0,1.2144413E1,8.0418335E1,1.12283554E2,-3.9721087E-1,-2.998047E-1,7.3616165E1,5.5E0,-8.496094E-1,5.262836E0,6.962925E1,-1.291359E-1,-4.7033006E-1,3.274974E-1,8.238315E0,1.625E1,1.7E1,9.9325776E-2,-6.3370377E-1,1.4444444E0,2.425E1,-1.9989802E-1,-5.304049E-1,1.03870094E-1,6.377913E-1,1.2852839E-1,-2.1119718E-2,-2.1568638E-1,7.1665116E-2,-7.188516E-2,-4.3871295E-1,1.0143946E-1,3.415781E-1,-2.4022307E-1,2.609755E-1,2.8059238E-1,-2.624129E-1,-1.0081228E0,-1.2538864E-1],"split_indices":[0,7,5,7,2,3,9,5,3,1,2,2,0,7,1,0,7,5,1,0,0,0,5,9,0,0,0,3,9,0,0,0,0,0,0,0,0,0,0,0,0,0,0,0,0,0,0],"split_type":[0,0,0,0,0,0,0,0,0,0,0,0,0,0,0,0,0,0,0,0,0,0,0,0,0,0,0,0,0,0,0,0,0,0,0,0,0,0,0,0,0,0,0,0,0,0,0],"sum_hessian":[7.8029346E2,6.803641E2,9.992939E1,6.605926E2,1.9771517E1,5.7720985E1,4.2208405E1,4.015889E1,6.2043365E2,1.2156291E1,7.615226E0,5.6249264E1,1.4717215E0,5.2436852E0,3.6964718E1,3.7057884E1,3.1010077E0,5.3488336E2,8.555033E1,1.7811686E0,1.0375122E1,1.9433445E0,5.671881E0,5.1518723E1,4.7305427E0,1.1030926E0,4.1405926E0,3.0063221E1,6.9014974E0,2.7203304E1,9.854579E0,1.9150407E0,1.185967E0,1.05892044E2,4.289913E2,6.463726E1,2.0913069E1,2.4919322E0,3.179949E0,9.236308E0,4.2282413E1,2.4293957E0,2.3011467E0,2.4117136E1,5.9460835E0,1.0871397E0,5.8143578E0],"tree_param":{"num_deleted":"0","num_feature":"10","num_nodes":"47","size_leaf_vector":"1"}},{"base_weights":[-1.8932242E-2,-6.158147E-1,-1.6506769E-4,4.157862E-2,-7.876901E-1,-4.215451E-1,1.0680509E-2,4.729247E-1,-2.8341836E-1,-1.860218E-1,-8.797829E-1,4.414782E-1,-1.1911343E-2,-2.3568143E-1,4.5637754E-1,2.2254476E-1,-2.8202122E-1,-4.217283E-1,-1.9195588E-2,1.128626E0,4.9687788E-2,-3.5081738E-1,2.2722587E-2,2.0253035E-1,7.8294253E-1,-1.6302407E-1,2.8973097E-1,6.284524E-1,-2.0128313E-1,-4.1960735E-2,5.7968423E-2],"categories":[],"categories_nodes":[],"categories_segments":[],"categories_sizes":[],"default_left":[0,0,0,0,0,0,0,0,0,0,0,0,0,0,0,0,0,0,0,0,0,0,0,0,0,0,0,0,0,0,0],"id":14,"left_children":[1,3,5,7,9,-1,11,13,-1,15,17,19,21,-1,-1,-1,-1,-1,-1,23,25,27,29,-1,-1,-1,-1,-1,-1,-1,-1],"loss_changes":[8.405736E0,2.6173458E0,7.4103646E0,1.9459622E0,8.438902E-1,0E0,7.0241113E0,2.7083354E0,0E0,1.4142183E0,7.047863E-1,9.625422E0,8.062509E0,0E0,0E0,0E0,0E0,0E0,0E0,4.6140976E0,6.0952997E0,1.1361021E1,7.6837997E0,0E0,0E0,0E0,0E0,0E0,0E0,0E0,0E0],"parents":[2147483647,0,0,1,1,2,2,3,3,4,4,6,6,7,7,9,9,10,10,11,11,12,12,19,19,20,20,21,21,22,22],"right_children":[2,4,6,8,10,-1,12,14,-1,16,18,20,22,-1,-1,-1,-1,-1,-1,24,26,28,30,-1,-1,-1,-1,-1,-1,-1,-1],"split_conditions":[7E0,3E0,1.5312442E0,9.7325945E0,-3.984375E-1,-4.215451E-1,2.9950933E1,1.0520165E1,-2.8341836E-1,4.9803467E0,6.25E0,5.8857617E0,1.65E1,-2.3568143E-1,4.5637754E-1,2.2254476E-1,-2.8202122E-1,-4.217283E-1,-1.9195588E-2,3.0765226E0,2.5779835E1,2.75E0,4.75E0,2.0253035E-1,7.8294253E-1,-1.6302407E-1,2.8973097E-1,6.284524E-1,-2.0128313E-1,-4.1960735E-2,5.7968423E-2],"split_indices":[6,0,1,1,7,0,2,2,0,5,9,5,6,0,0,0,0,0,0,5,2,0,0,0,0,0,0,0,0,0,0],"split_type":[0,0,0,0,0,0,0,0,0,0,0,0,0,0,0,0,0,0,0,0,0,0,0,0,0,0,0,0,0,0,0],"sum_hessian":[7.494008E2,2.18746E1,7.2752625E2,4.6908827E0,1.7183716E1,7.350826E0,7.201754E2,3.0359905E0,1.6548926E0,2.681919E0,1.4501797E1,3.496157E1,6.8521387E2,1.0798647E0,1.9561256E0,1.0060564E0,1.6758627E0,1.3459533E1,1.0422643E0,1.2012525E1,2.2949047E1,6.26853E1,6.2252856E2,6.5156565E0,5.4968686E0,1.3782879E1,9.166168E0,2.5748734E0,6.0110428E1,2.97484E2,3.2504456E2],"tree_param":{"num_deleted":"0","num_feature":"10","num_nodes":"31","size_leaf_vector":"1"}},{"base_weights":[-1.6853532E-2,-7.073348E-1,-1.1604689E-3,-4.3053454E-1,-2.887947E-1,1.3414973E-2,-7.6073116E-1,4.9099562E-1,-7.0487607E-1,3.4449358E-2,-3.794881E-1,-4.398817E-1,-3.4477425E-1,-1.5743786E-1,4.9869657E-1,9.444924E-2,-4.5629823E-1,-6.996111E-2,1.3406393E-1,-7.537341E-1,-1.7018679E-1,4.650835E-1,-3.903193E-1,2.1885574E-2,-8.021566E-2,8.615179E-2,-7.985611E-2,-4.041786E-1,-2.585917E-2,-2.1623407E-4,-3.4617916E-1],"categories":[],"categories_nodes":[],"categories_segments":[],"categories_sizes":[],"default_left":[0,0,0,0,0,0,0,0,0,0,0,0,0,0,0,0,0,0,0,0,0,0,0,0,0,0,0,0,0,0,0],"id":15,"left_children":[1,3,5,-1,7,9,11,13,15,17,19,-1,21,-1,-1,-1,-1,23,25,27,29,-1,-1,-1,-1,-1,-1,-1,-1,-1,-1],"loss_changes":[7.9695315E0,1.4298534E0,7.9837646E0,0E0,2.7909622E0,5.861329E0,8.8728666E-1,2.054307E0,1.7183301E0,7.0049167E0,2.6949086E0,0E0,5.3598843E0,0E0,0E0,0E0,0E0,4.2347984E0,6.1932607E0,1.2191434E0,2.4810648E0,0E0,0E0,0E0,0E0,0E0,0E0,0E0,0E0,0E0,0E0],"parents":[2147483647,0,0,1,1,2,2,4,4,5,5,6,6,7,7,8,8,9,9,10,10,12,12,17,17,18,18,19,19,20,20],"right_children":[2,4,6,-1,8,10,12,14,16,18,20,-1,22,-1,-1,-1,-1,24,26,28,30,-1,-1,-1,-1,-1,-1,-1,-1,-1,-1],"split_conditions":[-1E0,1.85E1,2E0,-4.3053454E-1,2.225E1,6.484375E-1,5.965662E1,5.479894E1,-4.0234375E-1,-1.953125E-1,2.425E1,-4.398817E-1,6.673785E1,-1.5743786E-1,4.9869657E-1,9.444924E-2,-4.5629823E-1,0E0,1.0476191E0,2.96875E-1,8.786458E1,4.650835E-1,-3.903193E-1,2.1885574E-2,-8.021566E-2,8.615179E-2,-7.985611E-2,-4.041786E-1,-2.585917E-2,-2.1623407E-4,-3.4617916E-1],"split_indices":[8,9,8,0,9,7,2,1,7,4,6,0,2,0,0,0,0,8,3,4,2,0,0,0,0,0,0,0,0,0,0],"split_type":[0,0,0,0,0,0,0,0,0,0,0,0,0,0,0,0,0,0,0,0,0,0,0,0,0,0,0,0,0,0,0],"sum_hessian":[7.345597E2,1.5344439E1,7.192153E2,8.80915E0,6.5352893E0,7.066379E2,1.2577373E1,2.2111886E0,4.324101E0,6.7159576E2,3.5042103E1,7.3807282E0,5.196644E0,1.119382E0,1.0918067E0,1.1732323E0,3.1508684E0,3.2804984E2,3.4354593E2,1.1635606E1,2.3406498E1,1.1599058E0,4.0367384E0,1.5684192E2,1.7120792E2,2.9043182E2,5.3114113E1,9.396357E0,2.2392492E0,1.9019636E1,4.3868628E0],"tree_param":{"num_deleted":"0","num_feature":"10","num_nodes":"31","size_leaf_vector":"1"}},{"base_weights":[-1.5154087E-2,-6.500435E-2,1.4475816E-1,-2.9251069E-2,-6.0648626E-1,2.1723373E-1,-4.1720226E-1,-1.666139E-1,1.189623E-1,-8.898974E-1,-8.614213E-2,-1.2658671E-3,4.3510273E-1,4.2770796E-2,-1.0230232E0,-2.381468E-1,1.1420628E-1,-7.316598E-1,1.6232641E-1,-3.5559818E-1,-1.0570579E0,-6.680532E-1,4.812025E-1,2.9245558E-1,-4.9979705E-1,6.6268265E-1,-1.1405795E-1,-5.9888715E-1,7.237065E-1,-5.4512185E-1,6.088209E-2,-9.185123E-2,-4.5381844E-1,1.5824535E-1,-1.891897E-1,-4.0870392E-1,2.4134088E-1,1.3130602E-1,-7.03855E-2,-4.8700765E-1,4.496157E-2,-3.164097E-1,-6.8518037E-1,5.481751E-2,-5.128771E-1,-1.15890525E-1,5.616186E-1,1.587946E-1,-3.5345662E-1,-3.0309057E-1,3.2515E-1,-4.8143644E-2,3.6197793E-1,-5.3411597E-1,9.5137104E-2,3.2525328E-3,-4.6860614E-1,5.609978E-1,-1.6549154E-1],"categories":[],"categories_nodes":[],"categories_segments":[],"categories_sizes":[],"default_left":[0,0,0,0,0,0,0,0,0,0,0,0,0,0,0,0,0,0,0,0,0,0,0,0,0,0,0,0,0,0,0,0,0,0,0,0,0,0,0,0,0,0,0,0,0,0,0,0,0,0,0,0,0,0,0,0,0,0,0],"id":16,"left_children":[1,3,5,7,9,11,13,15,17,19,21,23,25,27,29,31,33,35,37,39,41,43,45,47,49,51,53,55,57,-1,-1,-1,-1,-1,-1,-1,-1,-1,-1,-1,-1,-1,-1,-1,-1,-1,-1,-1,-1,-1,-1,-1,-1,-1,-1,-1,-1,-1,-1],"loss_changes":[5.775819E0,1.0671655E1,7.104786E0,1.0586077E1,4.9592752E0,7.293618E0,5.621417E0,5.446397E0,9.348575E0,1.5890408E0,4.6622877E0,1.1492586E1,9.663208E0,5.823954E0,2.0573711E0,5.439451E0,7.18633E0,3.2451558E0,9.904074E0,2.342242E0,1.6070919E0,2.7130497E0,4.422106E0,3.493916E0,6.665948E0,6.0178795E0,8.39754E0,1.857728E0,4.1333723E0,0E0,0E0,0E0,0E0,0E0,0E0,0E0,0E0,0E0,0E0,0E0,0E0,0E0,0E0,0E0,0E0,0E0,0E0,0E0,0E0,0E0,0E0,0E0,0E0,0E0,0E0,0E0,0E0,0E0,0E0],"parents":[2147483647,0,0,1,1,2,2,3,3,4,4,5,5,6,6,7,7,8,8,9,9,10,10,11,11,12,12,13,13,14,14,15,15,16,16,17,17,18,18,19,19,20,20,21,21,22,22,23,23,24,24,25,25,26,26,27,27,28,28],"right_children":[2,4,6,8,10,12,14,16,18,20,22,24,26,28,30,32,34,36,38,40,42,44,46,48,50,52,54,56,58,-1,-1,-1,-1,-1,-1,-1,-1,-1,-1,-1,-1,-1,-1,-1,-1,-1,-1,-1,-1,-1,-1,-1,-1,-1,-1,-1,-1,-1,-1],"split_conditions":[4.05E1,8.9159615E1,2.3157895E0,4.75E0,2.9E1,3.6935585E1,5.8146305E1,7.907138E1,-6.015625E-1,7.482476E0,0E0,2.43121E1,7E0,7.184116E1,1.825E1,3.275E1,8.320573E1,7.034514E1,1.5625E-1,2.35E1,2.3076923E-1,-2.9956055E-1,7.2689606E1,6.484375E-1,5.078125E-2,3.868128E1,8.25E0,3.9166667E0,5.078125E-2,-5.4512185E-1,6.088209E-2,-9.185123E-2,-4.5381844E-1,1.5824535E-1,-1.891897E-1,-4.0870392E-1,2.4134088E-1,1.3130602E-1,-7.03855E-2,-4.8700765E-1,4.496157E-2,-3.164097E-1,-6.8518037E-1,5.481751E-2,-5.128771E-1,-1.15890525E-1,5.616186E-1,1.587946E-1,-3.5345662E-1,-3.0309057E-1,3.2515E-1,-4.8143644E-2,3.6197793E-1,-5.3411597E-1,9.5137104E-2,3.2525328E-3,-4.6860614E-1,5.609978E-1,-1.6549154E-1],"split_indices":[6,2,3,0,9,5,5,2,7,5,8,5,0,1,0,9,2,1,7,6,3,4,1,7,4,1,0,3,7,0,0,0,0,0,0,0,0,0,0,0,0,0,0,0,0,0,0,0,0,0,0,0,0,0,0,0,0,0,0],"split_type":[0,0,0,0,0,0,0,0,0,0,0,0,0,0,0,0,0,0,0,0,0,0,0,0,0,0,0,0,0,0,0,0,0,0,0,0,0,0,0,0,0,0,0,0,0,0,0,0,0,0,0,0,0,0,0,0,0,0,0],"sum_hessian":[7.223629E2,5.5114514E2,1.7121779E2,5.179966E2,3.3148556E1,1.5220187E2,1.9015915E1,2.6877454E2,2.4922202E2,2.1000303E1,1.2148253E1,7.648734E1,7.571453E1,1.1337359E1,7.6785555E0,2.1433044E2,5.4444103E1,1.1318959E1,2.3790306E2,5.7496953E0,1.5250608E1,5.9095097E0,6.2387433E0,4.8390373E1,2.809697E1,5.3384518E1,2.2330015E1,5.8990617E0,5.4382977E0,6.565156E0,1.1133994E0,2.0647357E2,7.8568726E0,3.793698E1,1.6507122E1,1.01844425E1,1.1345167E0,1.6924425E2,6.865881E1,1.6853416E0,4.0643535E0,1.0090235E1,5.160373E0,2.486808E0,3.4227014E0,3.5158741E0,2.7228694E0,4.6458805E1,1.9315658E0,2.499353E1,3.1034398E0,8.3389845E0,4.5045536E1,4.5814195E0,1.7748596E1,2.9042559E0,2.9948056E0,3.5805526E0,1.8577453E0],"tree_param":{"num_deleted":"0","num_feature":"10","num_nodes":"59","size_leaf_vector":"1"}},{"base_weights":[-1.4450688E-2,-3.9644912E-1,-6.28728E-3,6.591218E-2,-9.438048E-2,1.3572937E-2,4.0045372E-1,-4.164285E-1,1.155413E-2,8.3435826E-2,-1.7217359E-1,5.981657E-1,6.223101E-2,-1.1096304E-1,-6.08819E-1,-9.556455E-2,1.3882908E-1,9.994018E-2,-5.2738264E-2,-1.7962815E-1,9.7100526E-2,2.936302E-1,-2.1326755E-1,-3.1967375E-1,1.5854561E-1,2.8583685E-1,-1.6232042E-1,-3.3159792E-1,-2.8775176E-3,-1.6415001E-1,4.0219966E-2,1.8249328E-1,-5.5075932E-2],"categories":[],"categories_nodes":[],"categories_segments":[],"categories_sizes":[],"default_left":[0,0,0,0,0,0,0,0,0,0,0,0,0,0,0,0,0,0,0,0,0,0,0,0,0,0,0,0,0,0,0,0,0],"id":17,"left_children":[1,-1,3,5,7,9,11,13,15,17,19,21,23,25,27,29,31,-1,-1,-1,-1,-1,-1,-1,-1,-1,-1,-1,-1,-1,-1,-1,-1],"loss_changes":[4.9547358E0,0E0,4.430835E0,6.699176E0,1.0708843E1,4.3245096E0,3.4244623E0,4.4980373E0,3.2453144E0,6.7590427E0,8.109518E0,2.2059345E0,4.7807407E0,6.0515547E0,3.6555195E0,6.4712253E0,7.626133E0,0E0,0E0,0E0,0E0,0E0,0E0,0E0,0E0,0E0,0E0,0E0,0E0,0E0,0E0,0E0,0E0],"parents":[2147483647,0,0,2,2,3,3,4,4,5,5,6,6,7,7,8,8,9,9,10,10,11,11,12,12,13,13,14,14,15,15,16,16],"right_children":[2,-1,4,6,8,10,12,14,16,18,20,22,24,26,28,30,32,-1,-1,-1,-1,-1,-1,-1,-1,-1,-1,-1,-1,-1,-1,-1,-1],"split_conditions":[1.5312442E0,-3.9644912E-1,1.6990181E1,8.75E0,2.95E1,3.2142857E-1,4.074074E-1,3.059648E1,2.3E1,6.4170876E1,7.7149086E1,8.4765625E-1,-2.0117188E-1,2.1603968E1,7.999933E1,4.9621902E1,8.127774E1,9.994018E-2,-5.2738264E-2,-1.7962815E-1,9.7100526E-2,2.936302E-1,-2.1326755E-1,-3.1967375E-1,1.5854561E-1,2.8583685E-1,-1.6232042E-1,-3.3159792E-1,-2.8775176E-3,-1.6415001E-1,4.0219966E-2,1.8249328E-1,-5.5075932E-2],"split_indices":[1,0,5,0,6,3,3,1,9,1,2,7,7,5,2,1,2,0,0,0,0,0,0,0,0,0,0,0,0,0,0,0,0],"split_type":[0,0,0,0,0,0,0,0,0,0,0,0,0,0,0,0,0,0,0,0,0,0,0,0,0,0,0,0,0,0,0,0,0],"sum_hessian":[7.002001E2,5.5368977E0,6.946632E2,3.819095E2,3.127537E2,3.3114258E2,5.07669E1,7.668758E1,2.3606613E2,2.4103531E2,9.010727E1,3.1553429E1,1.9213472E1,3.024432E1,4.6443256E1,1.283184E2,1.0774773E2,1.4246982E2,9.85655E1,5.6827343E1,3.3279926E1,3.0403593E1,1.1498346E0,4.8492947E0,1.4364178E1,7.1975183E0,2.30468E1,3.8117023E1,8.326233E0,5.1858135E1,7.646026E1,5.3040104E1,5.4707626E1],"tree_param":{"num_deleted":"0","num_feature":"10","num_nodes":"33","size_leaf_vector":"1"}},{"base_weights":[-1.088748E-2,-6.176738E-1,4.1906428E-4,-4.076134E-1,-2.4701482E-1,1.0700459E-2,-6.79791E-1,2.3279092E-1,-3.4020284E-1,-5.231797E-1,2.0584995E-2,-4.1211888E-1,-2.9630592E-1,-1.6333726E-1,3.5224822E-1,5.643211E-2,-7.33235E-1,2.3168524E-1,-2.8304209E-3,3.088336E-1,-3.5879222E-1,-3.0439454E-1,3.7018648E-1,-4.286264E-1,-3.9555915E-2,7.442015E-3,2.8292373E-1,-2.8584707E-1,4.7408533E-3],"categories":[],"categories_nodes":[],"categories_segments":[],"categories_sizes":[],"default_left":[0,0,0,0,0,0,0,0,0,0,0,0,0,0,0,0,0,0,0,0,0,0,0,0,0,0,0,0,0],"id":18,"left_children":[1,3,5,-1,7,9,11,13,-1,15,17,-1,19,-1,-1,21,23,25,27,-1,-1,-1,-1,-1,-1,-1,-1,-1,-1],"loss_changes":[4.714072E0,1.1186299E0,4.731457E0,0E0,1.8543189E0,3.5276575E0,6.4045334E-1,1.6937587E0,0E0,1.5209267E0,3.2397232E0,0E0,3.1643846E0,0E0,0E0,2.893021E0,1.1885362E0,5.5794945E0,5.0006495E0,0E0,0E0,0E0,0E0,0E0,0E0,0E0,0E0,0E0,0E0],"parents":[2147483647,0,0,1,1,2,2,4,4,5,5,6,6,7,7,9,9,10,10,12,12,15,15,16,16,17,17,18,18],"right_children":[2,4,6,-1,8,10,12,14,-1,16,18,-1,20,-1,-1,22,24,26,28,-1,-1,-1,-1,-1,-1,-1,-1,-1,-1],"split_conditions":[-1E0,1.85E1,2E0,-4.076134E-1,6.563883E1,-1.1953125E0,5.965662E1,5.75E0,-3.4020284E-1,3E0,2.2285688E1,-4.1211888E-1,5.1702457E1,-1.6333726E-1,3.5224822E-1,2.5E0,4.05E1,1.8232607E1,1.1E1,3.088336E-1,-3.5879222E-1,-3.0439454E-1,3.7018648E-1,-4.286264E-1,-3.9555915E-2,7.442015E-3,2.8292373E-1,-2.8584707E-1,4.7408533E-3],"split_indices":[8,9,8,0,1,4,2,0,0,0,1,0,1,0,0,0,6,1,6,0,0,0,0,0,0,0,0,0,0],"split_type":[0,0,0,0,0,0,0,0,0,0,0,0,0,0,0,0,0,0,0,0,0,0,0,0,0,0,0,0,0],"sum_hessian":[6.86079E2,1.15691595E1,6.745098E2,5.696882E0,5.872278E0,6.65436E2,9.073815E0,3.302133E0,2.5701451E0,1.1152306E1,6.542837E2,4.7575016E0,4.316314E0,1.7483184E0,1.5538148E0,3.1611087E0,7.991197E0,6.443942E1,5.8984424E2,1.332713E0,2.983601E0,1.6755921E0,1.4855167E0,5.609307E0,2.3818903E0,4.246816E1,2.1971268E1,1.1245516E1,5.7859875E2],"tree_param":{"num_deleted":"0","num_feature":"10","num_nodes":"29","size_leaf_vector":"1"}}]},"name":"gbtree"},"learner_model_param":{"base_score":"1.6294429E-1","boost_from_average":"1","num_class":"0","num_feature":"10","num_target":"1"},"objective":{"name":"binary:logistic","reg_loss_param":{"scale_pos_weight":"1"}}},"version":[3,0,5]}