{"learner":{"attributes":{"best_iteration":"18","best_ntree_limit":"19","scikit_learn":"{\"use_label_encoder\": null, \"n_estimators\": 19, \"objective\": \"binary:logistic\", \"max_depth\": 4, \"max_leaves\": null, \"max_bin\": null, \"grow_policy\": \"depthwise\", \"learning_rate\": 0.56, \"verbosity\": null, \"booster\": null, \"tree_method\": null, \"gamma\": null, \"min_child_weight\": null, \"max_delta_step\": null, \"subsample\": 1.0, \"sampling_method\": null, \"colsample_bytree\": 1.0, \"colsample_bylevel\": null, \"colsample_bynode\": null, \"reg_alpha\": null, \"reg_lambda\": null, \"scale_pos_weight\": null, \"base_score\": null, \"missing\": NaN, \"num_parallel_tree\": null, \"random_state\": null, \"n_jobs\": null, \"monotone_constraints\": null, \"interaction_constraints\": null, \"importance_type\": null, \"gpu_id\": null, \"validate_parameters\": null, \"predictor\": null, \"enable_categorical\": false, \"feature_types\": null, \"max_cat_to_onehot\": null, \"max_cat_threshold\": null, \"eval_metric\": null, \"early_stopping_rounds\": null, \"callbacks\": null, \"classes_\": [0, 1], \"n_classes_\": 2, \"_estimator_type\": \"classifier\"}"},"feature_names":["pi2_pt","pi1_pt","m_01","triplet_mass","pi2_iso","triplet_maxdR","pi0_pt","triplet_charge","triplet_maxdVz","dVz_02"],"feature_types":["float","float","float","float","float","float","float","float","float","float"],"gradient_booster":{"model":{"gbtree_model_param":{"num_parallel_tree":"1","num_trees":"19","size_leaf_vector":"0"},"tree_info":[0,0,0,0,0,0,0,0,0,0,0,0,0,0,0,0,0,0,0],"trees":[{"base_weights":[-1.3481026E0,-1.8455801E0,1.4594755E0,-1.9348682E0,-2.57874E-1,-9.6213186E-1,1.7443708E0,-1.9646939E0,-1.3757477E0,-8.21119E-1,6.7535853E-1,3.272727E-1,-1.7556561E0,1.8315862E0,-5.422222E-1,-1.9880553E0,-1.7901961E0,-1.7386626E0,-4.9446493E-1,-5.1142544E-1,-1.6158192E0,1.0555556E0,-1.3495935E0,-1.1340206E0,1.0989012E0,-9.879518E-1,-1.9118457E0,1.8722807E0,-1.1382114E-1,-1.4782609E0,1.0218978E-1],"categories":[],"categories_nodes":[],"categories_segments":[],"categories_sizes":[],"default_left":[1,1,1,1,1,1,1,1,1,1,1,1,1,1,1,0,0,0,0,0,0,0,0,0,0,0,0,0,0,0,0],"id":0,"left_children":[1,3,5,7,9,11,13,15,17,19,21,23,25,27,29,-1,-1,-1,-1,-1,-1,-1,-1,-1,-1,-1,-1,-1,-1,-1,-1],"loss_changes":[1.5653846E4,1.3490137E3,1.1657205E3,1.4759375E2,2.6757895E2,1.8295532E2,3.0212598E2,3.1308594E1,1.4618243E2,7.725313E1,1.490492E2,7.876698E1,1.1360962E1,1.15382324E2,3.4080757E1,0E0,0E0,0E0,0E0,0E0,0E0,0E0,0E0,0E0,0E0,0E0,0E0,0E0,0E0,0E0,0E0],"parents":[2147483647,0,0,1,1,2,2,3,3,4,4,5,5,6,6,7,7,8,8,9,9,10,10,11,11,12,12,13,13,14,14],"right_children":[2,4,6,8,10,12,14,16,18,20,22,24,26,28,30,-1,-1,-1,-1,-1,-1,-1,-1,-1,-1,-1,-1,-1,-1,-1,-1],"split_conditions":[6.875E0,6.365161E1,5.7992943E1,6.599223E1,4.375E0,3.438424E-1,1.8320513E0,9.875E0,4.625E0,4.609375E-1,3.7994018E0,2.3849827E1,8.82326E-1,3.9611228E0,1.8375E1,-1.113311E0,-1.0025098E0,-9.7365105E-1,-2.7690035E-1,-2.8639823E-1,-9.0485877E-1,5.911111E-1,-7.5577235E-1,-6.3505155E-1,6.1538464E-1,-5.53253E-1,-1.0706335E0,1.0484772E0,-6.3739836E-2,-8.278261E-1,5.7226278E-2],"split_indices":[0,2,3,3,0,4,4,1,0,8,5,2,4,5,1,0,0,0,0,0,0,0,0,0,0,0,0,0,0,0,0],"split_type":[0,0,0,0,0,0,0,0,0,0,0,0,0,0,0,0,0,0,0,0,0,0,0,0,0,0,0,0,0,0,0],"sum_hessian":[1.120475E4,9.5185E3,1.68625E3,9.0115E3,5.07E2,1.7725E2,1.509E3,8.55275E3,4.5875E2,3.1625E2,1.9075E2,6.775E1,1.095E2,1.45375E3,5.525E1,7.53375E3,1.019E3,3.2425E2,1.345E2,2.2875E2,8.75E1,1.61E2,2.975E1,2.325E1,4.45E1,1.975E1,8.975E1,1.424E3,2.975E1,2.2E1,3.325E1],"tree_param":{"num_deleted":"0","num_feature":"10","num_nodes":"31","size_leaf_vector":"0"}},{"base_weights":[-8.627325E-1,-1.2024652E0,8.338845E-1,-1.2835511E0,-3.6441657E-1,-6.9069165E-1,1.10885E0,-1.3139726E0,-1.0752747E0,1.7896749E-1,-1.0940675E0,1.511044E-1,-1.2823925E0,1.1804817E0,-7.293159E-1,-1.3143944E0,-3.7763718E-1,-1.2168841E0,-2.6211149E-1,-1.0868933E0,3.4795037E-1,-7.373278E-1,-1.4374373E0,-8.056E-1,8.49712E-1,-8.0124366E-1,-1.3506118E0,-2.0546389E0,1.2043704E0,-1.2729803E0,6.901876E-2],"categories":[],"categories_nodes":[],"categories_segments":[],"categories_sizes":[],"default_left":[1,1,1,1,1,1,1,1,1,1,1,1,1,1,1,0,0,0,0,0,0,0,0,0,0,0,0,0,0,0,0],"id":1,"left_children":[1,3,5,7,9,11,13,15,17,19,21,23,25,27,29,-1,-1,-1,-1,-1,-1,-1,-1,-1,-1,-1,-1,-1,-1,-1,-1],"loss_changes":[4.954566E3,4.8612695E2,6.0206104E2,3.995215E1,2.5121132E2,1.09666306E2,1.6091772E2,1.7509766E0,9.612671E1,7.818351E1,3.2059692E1,6.1915928E1,3.1576538E0,9.292432E1,2.0144867E1,0E0,0E0,0E0,0E0,0E0,0E0,0E0,0E0,0E0,0E0,0E0,0E0,0E0,0E0,0E0,0E0],"parents":[2147483647,0,0,1,1,2,2,3,3,4,4,5,5,6,6,7,7,8,8,9,9,10,10,11,11,12,12,13,13,14,14],"right_children":[2,4,6,8,10,12,14,16,18,20,22,24,26,28,30,-1,-1,-1,-1,-1,-1,-1,-1,-1,-1,-1,-1,-1,-1,-1,-1],"split_conditions":[6.375E0,7.165348E1,1.3375E1,1.0625E1,3.7118273E0,2.7718675E-1,2.3510487E0,7.575E1,4.625E0,-4.765625E-1,8.640829E1,9.875E0,4.7017545E-1,2.4075296E0,5.791015E1,-7.3606086E-1,-2.1147682E-1,-6.8145514E-1,-1.4678243E-1,-6.086603E-1,1.948522E-1,-4.1290358E-1,-8.049649E-1,-4.51136E-1,4.7583872E-1,-4.4869646E-1,-7.563426E-1,-1.1505978E0,6.744474E-1,-7.12869E-1,3.8650505E-2],"split_indices":[0,3,1,1,5,4,4,6,0,9,3,1,4,2,2,0,0,0,0,0,0,0,0,0,0,0,0,0,0,0,0],"split_type":[0,0,0,0,0,0,0,0,0,0,0,0,0,0,0,0,0,0,0,0,0,0,0,0,0,0,0,0,0,0,0],"sum_hessian":[8.593026E3,7.1596587E3,1.4333673E3,6.52755E3,6.32109E2,2.18784E2,1.2145834E3,5.690996E3,8.365536E2,3.627313E2,2.6937775E2,9.061427E1,1.2816972E2,1.1693718E3,4.521152E1,5.6880303E3,2.9658926E0,7.1205524E2,1.2449833E2,4.207947E1,3.2065182E2,1.3366037E2,1.3571738E2,3.8178196E1,5.2436077E1,1.7498495E1,1.10671234E2,7.948445E0,1.1614233E3,2.6541956E1,1.8669567E1],"tree_param":{"num_deleted":"0","num_feature":"10","num_nodes":"31","size_leaf_vector":"0"}},{"base_weights":[-7.0037055E-1,-1.0500646E0,3.970931E-1,-1.0797129E0,2.3501095E-1,-3.365521E-1,8.8574326E-1,-1.1325272E0,-7.9607266E-1,5.709583E-1,-7.2187835E-1,-1.060011E-1,-1.0489203E0,1.0029058E0,-6.6621816E-1,-1.1468939E0,-1.0423644E0,-1.0091243E0,-2.93111E-1,-1.2050024E0,6.9352543E-1,-8.779751E-1,3.2614216E-1,-3.9076623E-1,6.7356074E-1,-5.1745814E-1,-1.1680282E0,1.1046916E0,2.2831048E-1,5.525929E-1,-1.2747549E0],"categories":[],"categories_nodes":[],"categories_segments":[],"categories_sizes":[],"default_left":[1,1,1,1,1,1,1,1,1,1,1,1,1,1,1,0,0,0,0,0,0,0,0,0,0,0,0,0,0,0,0],"id":2,"left_children":[1,3,5,7,9,11,13,15,17,19,21,23,25,27,29,-1,-1,-1,-1,-1,-1,-1,-1,-1,-1,-1,-1,-1,-1,-1,-1],"loss_changes":[2.2176907E3,1.6719775E2,5.0105066E2,6.3260742E1,3.244054E1,9.172115E1,1.5316528E2,3.4785156E0,7.210928E1,1.7009174E1,4.5939827E0,9.428612E1,8.042755E0,6.1260864E1,4.481323E1,0E0,0E0,0E0,0E0,0E0,0E0,0E0,0E0,0E0,0E0,0E0,0E0,0E0,0E0,0E0,0E0],"parents":[2147483647,0,0,1,1,2,2,3,3,4,4,5,5,6,6,7,7,8,8,9,9,10,10,11,11,12,12,13,13,14,14],"right_children":[2,4,6,8,10,12,14,16,18,20,22,24,26,28,30,-1,-1,-1,-1,-1,-1,-1,-1,-1,-1,-1,-1,-1,-1,-1,-1],"split_conditions":[6.971344E1,8.625E0,5.875E0,9.875E0,6.5465844E-1,8.721234E1,9.715573E1,1.0625E1,4.375E0,4.8285522E0,2.175E1,7.253781E1,3.258089E0,5.987013E-1,3.0702438E0,-6.4226055E-1,-5.83724E-1,-5.651096E-1,-1.6414216E-1,-6.7480135E-1,3.8837424E-1,-4.9166605E-1,1.8263961E-1,-2.188291E-1,3.7719402E-1,-2.8977656E-1,-6.540958E-1,6.186273E-1,1.2785387E-1,3.09452E-1,-7.138627E-1],"split_indices":[3,0,0,1,4,3,3,6,0,2,1,2,5,4,5,0,0,0,0,0,0,0,0,0,0,0,0,0,0,0,0],"split_type":[0,0,0,0,0,0,0,0,0,0,0,0,0,0,0,0,0,0,0,0,0,0,0,0,0,0,0,0,0,0,0],"sum_hessian":[5.7765146E3,4.380699E3,1.3958156E3,4.2820664E3,9.863273E1,5.5814465E2,8.376709E2,3.607373E3,6.746933E2,7.330125E1,2.5331486E1,4.2254187E2,1.3560277E2,7.792003E2,5.847058E1,3.1014626E3,5.0591034E2,4.7322964E2,2.0146368E2,4.162112E0,6.913913E1,2.2188837E1,3.142649E0,3.0985434E2,1.1268754E2,2.5804974E1,1.0979779E2,6.883248E2,9.0875496E1,1.9502275E1,3.8968307E1],"tree_param":{"num_deleted":"0","num_feature":"10","num_nodes":"31","size_leaf_vector":"0"}},{"base_weights":[-5.799411E-1,-9.7400343E-1,1.9271965E-1,-1.0477457E0,-5.5222666E-1,-5.728971E-1,5.532232E-1,-1.0527803E0,2.8051518E-2,-3.1324857E-1,-9.456446E-1,-8.892031E-1,-2.4472521E-1,8.2526654E-1,-2.4894178E-1,-1.0701578E0,-9.4595385E-1,7.552176E-1,-9.064268E-1,-7.0149326E-1,1.9800557E-1,-9.8264396E-1,-2.500433E-1,-9.1267896E-1,4.2864373E-1,-1.0473549E-1,-1.2316489E0,9.104903E-1,-7.4053127E-1,-6.132864E-1,5.419729E-1],"categories":[],"categories_nodes":[],"categories_segments":[],"categories_sizes":[],"default_left":[1,1,1,1,1,1,1,1,1,1,1,1,1,1,1,0,0,0,0,0,0,0,0,0,0,0,0,0,0,0,0],"id":3,"left_children":[1,3,5,7,9,11,13,15,17,19,21,23,25,27,29,-1,-1,-1,-1,-1,-1,-1,-1,-1,-1,-1,-1,-1,-1,-1,-1],"loss_changes":[1.1765308E3,7.900586E1,3.6070978E2,1.1819824E1,3.570379E1,4.322328E1,1.9404056E2,3.0097656E0,8.236605E0,4.7717926E1,3.4655762E0,6.9722595E0,2.8438805E1,8.92171E1,6.5375725E1,0E0,0E0,0E0,0E0,0E0,0E0,0E0,0E0,0E0,0E0,0E0,0E0,0E0,0E0,0E0,0E0],"parents":[2147483647,0,0,1,1,2,2,3,3,4,4,5,5,6,6,7,7,8,8,9,9,10,10,11,11,12,12,13,13,14,14],"right_children":[2,4,6,8,10,12,14,16,18,20,22,24,26,28,30,-1,-1,-1,-1,-1,-1,-1,-1,-1,-1,-1,-1,-1,-1,-1,-1],"split_conditions":[1.3875E1,8.625E0,3.875E0,4.95E1,3.867302E-1,6.130591E1,4.2052633E-1,1.0375E1,3.4570312E-1,4.625E0,6.506853E1,6E1,7.5097656E-1,6.9140625E-1,1.0625E1,-5.9928834E-1,-5.2973413E-1,4.2292187E-1,-5.07599E-1,-3.9283624E-1,1.10883124E-1,-5.5028063E-1,-1.4002424E-1,-5.1110023E-1,2.400405E-1,-5.8651876E-2,-6.897234E-1,5.098746E-1,-4.146975E-1,-3.4344038E-1,3.0350482E-1],"split_indices":[1,1,0,6,4,2,4,6,8,0,2,6,8,8,0,0,0,0,0,0,0,0,0,0,0,0,0,0,0,0,0],"split_type":[0,0,0,0,0,0,0,0,0,0,0,0,0,0,0,0,0,0,0,0,0,0,0,0,0,0,0,0,0,0,0],"sum_hessian":[3.862494E3,2.5577585E3,1.3047354E3,2.175854E3,3.8190445E2,4.1749478E2,8.8724054E2,2.1657402E3,1.0113793E1,2.3870284E2,1.432016E2,2.1172025E2,2.0577455E2,6.625253E2,2.2471524E2,1.8549722E3,3.1076813E2,5.795693E0,4.3181E0,1.3546162E2,1.0324121E2,1.3557753E2,7.6240754E0,2.0831677E2,3.4034727E0,1.8118112E2,2.4593426E1,6.2872345E2,3.3801846E1,1.539985E2,7.071673E1],"tree_param":{"num_deleted":"0","num_feature":"10","num_nodes":"31","size_leaf_vector":"0"}},{"base_weights":[-4.7451752E-1,-9.255476E-1,7.896975E-2,-1.0074545E0,-5.798795E-1,-1.4678572E-1,6.9714105E-1,-6.654141E-1,-1.0151302E0,-6.9683796E-1,-3.155286E-2,-6.5539226E-2,-1.4175092E0,-1.4452386E0,7.553277E-1,-7.9071045E-1,1.0743698E0,-1.0317711E0,-8.7911856E-1,-7.6110977E-1,2.1122102E-1,2.7502427E-1,-9.5727247E-1,8.814178E-2,-7.87528E-1,-1.087307E0,-1.676269E0,7.854015E-1,-2.469298E0],"categories":[],"categories_nodes":[],"categories_segments":[],"categories_sizes":[],"default_left":[1,1,1,1,1,1,1,1,1,1,1,1,1,0,1,0,0,0,0,0,0,0,0,0,0,0,0,0,0],"id":4,"left_children":[1,3,5,7,9,11,13,15,17,19,21,23,25,-1,27,-1,-1,-1,-1,-1,-1,-1,-1,-1,-1,-1,-1,-1,-1],"loss_changes":[6.675546E2,4.1129517E1,1.6777199E2,2.447998E0,1.8229134E1,9.085121E1,4.1177917E1,7.1745386E0,1.72229E0,1.3847397E1,1.47596655E1,9.205149E1,2.6963043E0,0E0,3.2363327E1,0E0,0E0,0E0,0E0,0E0,0E0,0E0,0E0,0E0,0E0,0E0,0E0,0E0,0E0],"parents":[2147483647,0,0,1,1,2,2,3,3,4,4,5,5,6,6,7,7,8,8,9,9,10,10,11,11,12,12,14,14],"right_children":[2,4,6,8,10,12,14,16,18,20,22,24,26,-1,28,-1,-1,-1,-1,-1,-1,-1,-1,-1,-1,-1,-1,-1,-1],"split_conditions":[1.1375E1,1.2125E1,9.625E0,2.625E0,6.375E0,1.5E0,4.5937586E0,7.125E0,9.375E0,4.8E1,4.4140625E-1,3.5546875E-1,6.7386856E1,-8.093336E-1,2E0,-4.4279784E-1,6.016471E-1,-5.777918E-1,-4.923064E-1,-4.2622146E-1,1.1828377E-1,1.5401359E-1,-5.360726E-1,4.9359396E-2,-4.4101566E-1,-6.088919E-1,-9.387107E-1,4.3982485E-1,-1.3828068E0],"split_indices":[1,6,0,0,0,7,2,1,6,6,8,9,3,0,7,0,0,0,0,0,0,0,0,0,0,0,0,0,0],"split_type":[0,0,0,0,0,0,0,0,0,0,0,0,0,0,0,0,0,0,0,0,0,0,0,0,0,0,0,0,0],"sum_hessian":[2.672783E3,1.4723282E3,1.2004546E3,1.1887389E3,2.8358936E2,8.798844E2,3.2057025E2,2.8015383E1,1.1607235E3,2.3351054E2,5.00788E1,8.279962E2,5.1888176E1,7.8461003E0,3.1272415E2,2.664217E1,1.3732128E0,1.0283237E3,1.3239975E2,2.1822646E2,1.5284093E1,3.8147972E1,1.1930827E1,6.834058E2,1.445904E2,2.5082504E1,2.6805672E1,3.1058398E2,2.1401594E0],"tree_param":{"num_deleted":"0","num_feature":"10","num_nodes":"29","size_leaf_vector":"0"}},{"base_weights":[-3.615796E-1,-8.0852973E-1,1.0496427E-1,-9.5745564E-1,-5.129383E-1,-1.0041153E0,2.0966062E-1,-9.6436226E-1,7.7693656E-2,-9.5648235E-1,-3.427987E-1,-1.062537E0,-3.4270797E-2,-1.4586647E0,2.7702785E-1,-9.8145837E-1,-6.9902533E-1,-7.6706964E-1,1.3777198E0,-9.7854584E-1,-3.4148134E-2,-9.556525E-1,-1.7965248E-1,-1.1014304E0,3.1838894E-1,5.5650294E-1,-7.4605334E-1,-1.0315393E-1,-1.5216054E0,4.0586987E-1,-5.629115E-1],"categories":[],"categories_nodes":[],"categories_segments":[],"categories_sizes":[],"default_left":[1,1,1,1,1,1,1,1,1,1,1,1,1,1,1,0,0,0,0,0,0,0,0,0,0,0,0,0,0,0,0],"id":5,"left_children":[1,3,5,7,9,11,13,15,17,19,21,23,25,27,29,-1,-1,-1,-1,-1,-1,-1,-1,-1,-1,-1,-1,-1,-1,-1,-1],"loss_changes":[4.1587143E2,4.434381E1,1.13596756E2,4.9087524E0,2.5584747E1,4.745758E0,1.0077832E2,2.3609009E0,6.9944215E0,1.8924866E0,2.4798052E1,4.624443E0,2.8661397E0,2.8140106E0,9.3217384E1,0E0,0E0,0E0,0E0,0E0,0E0,0E0,0E0,0E0,0E0,0E0,0E0,0E0,0E0,0E0,0E0],"parents":[2147483647,0,0,1,1,2,2,3,3,4,4,5,5,6,6,7,7,8,8,9,9,10,10,11,11,12,12,13,13,14,14],"right_children":[2,4,6,8,10,12,14,16,18,20,22,24,26,28,30,-1,-1,-1,-1,-1,-1,-1,-1,-1,-1,-1,-1,-1,-1,-1,-1],"split_conditions":[5.652591E1,7.125E0,-6.0546875E-1,6.125E0,2.4944508E0,5.55E1,-1.5E0,1.3875E1,1.1375E1,2.8625E1,-3.9453125E-1,1.2125E1,9.082355E1,2.125E0,8.887765E1,-5.496167E-1,-3.914542E-1,-4.29559E-1,7.7152306E-1,-5.479857E-1,-1.9122954E-2,-5.3516537E-1,-1.0060539E-1,-6.16801E-1,1.782978E-1,3.1164163E-1,-4.1778988E-1,-5.77662E-2,-8.52099E-1,2.2728713E-1,-3.1523046E-1],"split_indices":[3,1,9,0,5,6,7,6,6,1,9,0,3,0,3,0,0,0,0,0,0,0,0,0,0,0,0,0,0,0,0],"split_type":[0,0,0,0,0,0,0,0,0,0,0,0,0,0,0,0,0,0,0,0,0,0,0,0,0,0,0,0,0,0,0],"sum_hessian":[1.9929712E3,1.01748505E3,9.754862E2,6.751098E2,3.4237527E2,8.340124E1,8.9208496E2,6.707032E2,4.4066086E0,9.363986E1,2.487354E2,7.857259E1,4.8286433E0,3.3822807E1,8.5826215E2,6.27569E2,4.313422E1,2.9194765E0,1.4871318E0,9.1392685E1,2.2471805E0,5.1272858E1,1.9746254E2,7.661709E1,1.9555063E0,2.757826E0,2.0708175E0,1.6179078E0,3.22049E1,7.445665E2,1.1369559E2],"tree_param":{"num_deleted":"0","num_feature":"10","num_nodes":"31","size_leaf_vector":"0"}},{"base_weights":[-2.639295E-1,-8.4509075E-1,7.05765E-3,-9.412796E-1,-5.13695E-1,1.6643907E-1,-5.060491E-1,-2.5855857E-1,-9.598348E-1,-2.9634443E-1,-9.023638E-1,-2.0149209E-1,4.688934E-1,-8.3297324E-1,-2.2373514E-1,-5.2793884E-1,9.0130943E-1,-9.816792E-1,-7.8313476E-1,-5.19389E-1,7.033836E-1,-3.3511972E-1,-9.4382584E-1,-4.578407E-1,1.5494537E-1,5.3429496E-1,-1.6327578E0,-6.446812E-1,-1.0481038E0,-4.03715E-1,2.8750128E-1],"categories":[],"categories_nodes":[],"categories_segments":[],"categories_sizes":[],"default_left":[1,1,1,1,1,1,1,1,1,1,1,1,1,1,1,0,0,0,0,0,0,0,0,0,0,0,0,0,0,0,0],"id":6,"left_children":[1,3,5,7,9,11,13,15,17,19,21,23,25,27,29,-1,-1,-1,-1,-1,-1,-1,-1,-1,-1,-1,-1,-1,-1,-1,-1],"loss_changes":[2.5376627E2,1.5850372E1,9.003337E1,4.767639E0,9.6563835E0,9.356836E1,2.3895828E1,4.1767263E0,7.1762085E-1,1.749715E1,6.6311646E-1,3.4761738E1,6.4279465E1,4.207176E0,1.3125034E1,0E0,0E0,0E0,0E0,0E0,0E0,0E0,0E0,0E0,0E0,0E0,0E0,0E0,0E0,0E0,0E0],"parents":[2147483647,0,0,1,1,2,2,3,3,4,4,5,5,6,6,7,7,8,8,9,9,10,10,11,11,12,12,13,13,14,14],"right_children":[2,4,6,8,10,12,14,16,18,20,22,24,26,28,30,-1,-1,-1,-1,-1,-1,-1,-1,-1,-1,-1,-1,-1,-1,-1,-1],"split_conditions":[8.625E0,1.0375E1,6.3100684E-1,2.625E0,4.6410257E-1,4.625E0,5.3598038E1,7.375E0,6.375E0,5.375E0,1.0875E1,7.638928E1,2E0,2.6125E1,8.375E0,-2.9564574E-1,5.0473326E-1,-5.497404E-1,-4.3855548E-1,-2.9085782E-1,3.9389482E-1,-1.8766704E-1,-5.2854246E-1,-2.563908E-1,8.676941E-2,2.9920518E-1,-9.143444E-1,-3.610215E-1,-5.8693814E-1,-2.260804E-1,1.6100071E-1],"split_indices":[1,6,4,0,4,0,2,6,1,0,6,3,7,6,0,0,0,0,0,0,0,0,0,0,0,0,0,0,0,0,0],"split_type":[0,0,0,0,0,0,0,0,0,0,0,0,0,0,0,0,0,0,0,0,0,0,0,0,0,0,0,0,0,0,0],"sum_hessian":[1.6103074E3,5.114115E2,1.0988959E3,3.949387E2,1.1647282E2,8.389703E2,2.5992566E2,1.0844912E1,3.8409375E2,7.582986E1,4.064296E1,3.7866446E2,4.6030582E2,1.19542725E2,1.4038292E2,9.243037E0,1.6018744E0,3.3778033E2,4.6313427E1,6.2390648E1,1.3439209E1,3.3870609E0,3.7255898E1,2.2009114E2,1.585733E2,4.4713705E2,1.3168747E1,6.587909E1,5.366364E1,1.0398537E2,3.639755E1],"tree_param":{"num_deleted":"0","num_feature":"10","num_nodes":"31","size_leaf_vector":"0"}},{"base_weights":[-1.9037732E-1,-8.69668E-1,-2.086114E-2,2.0121849E-1,-8.867515E-1,9.731224E-2,-7.849949E-1,-4.7821712E-1,1.2614443E0,-9.643195E-1,-6.9773495E-1,-6.773916E-1,2.2614428E-1,-9.6181494E-1,-4.9356553E-1,-1.7362136E-2,-6.4473754E-1,-4.0993395E-1,-9.796206E-1,-7.4320054E-1,5.211098E-1,-8.776681E-1,-3.976389E-1,2.7951777E-1,-1.1919974E0,-8.1859225E-1,-1.1462177E0,-8.270679E-2,-1.0128914E0],"categories":[],"categories_nodes":[],"categories_segments":[],"categories_sizes":[],"default_left":[1,1,1,1,1,1,1,1,0,1,1,1,1,1,1,0,0,0,0,0,0,0,0,0,0,0,0,0,0],"id":7,"left_children":[1,3,5,7,9,11,13,15,-1,17,19,21,23,25,27,-1,-1,-1,-1,-1,-1,-1,-1,-1,-1,-1,-1,-1,-1],"loss_changes":[1.5023029E2,4.945221E0,9.446181E1,4.1375723E0,3.0900726E0,9.059135E1,6.745041E0,2.7392185E-1,0E0,1.1198425E0,4.726063E0,6.903969E0,5.9196743E1,1.3368683E0,1.1643217E1,0E0,0E0,0E0,0E0,0E0,0E0,0E0,0E0,0E0,0E0,0E0,0E0,0E0,0E0],"parents":[2147483647,0,0,1,1,2,2,3,3,4,4,5,5,6,6,7,7,9,9,10,10,11,11,12,12,13,13,14,14],"right_children":[2,4,6,8,10,12,14,16,-1,18,20,22,24,26,28,-1,-1,-1,-1,-1,-1,-1,-1,-1,-1,-1,-1,-1,-1],"split_conditions":[1.8345905E1,2.375E0,6.328125E-1,1.9280884E1,1.1929195E1,-4.4726562E-1,7.5159195E1,2.65625E-1,7.064088E-1,2.625E0,7.855245E1,-6.4953613E-1,2E0,8.0859375E-1,8.379544E1,-9.722796E-3,-3.6105302E-1,-2.2956301E-1,-5.485875E-1,-4.161923E-1,2.918215E-1,-4.9149412E-1,-2.2267778E-1,1.5652995E-1,-6.6751856E-1,-4.5841166E-1,-6.4188194E-1,-4.63158E-2,-5.672192E-1],"split_indices":[2,0,8,3,2,9,3,8,0,0,3,9,7,9,3,0,0,0,0,0,0,0,0,0,0,0,0,0,0],"split_type":[0,0,0,0,0,0,0,0,0,0,0,0,0,0,0,0,0,0,0,0,0,0,0,0,0,0,0,0,0],"sum_hessian":[1.3037976E3,2.59558E2,1.0442395E3,3.906368E0,2.5565166E2,9.0513324E2,1.3910632E2,2.7152646E0,1.1911035E0,1.7835645E2,7.729521E1,1.2845268E2,7.7668054E2,8.514539E1,5.3960926E1,1.0137942E0,1.7014704E0,5.5368624E0,1.7281958E2,7.489182E1,2.4033883E0,7.361442E1,5.4838264E1,7.4928326E2,2.7397293E1,5.098517E1,3.4160225E1,3.0773823E1,2.3187101E1],"tree_param":{"num_deleted":"0","num_feature":"10","num_nodes":"29","size_leaf_vector":"0"}},{"base_weights":[-1.367752E-1,-8.388778E-1,-2.9467246E-2,1.7172855E-1,-8.9155775E-1,-1.2234042E0,2.17245E-2,-4.8718417E-1,1.159866E0,-9.6666044E-1,-6.997497E-1,-4.095767E-1,-1.2717848E0,1.1187629E-1,-4.6549997E-1,4.4003776E-1,-7.9559666E-1,1.633856E0,2.3175777E-1,-3.4880736E-1,-9.7514385E-1,-6.964367E-1,1.3313718E-1,-1.1278896E0,-1.689101E0,2.2526178E-1,-4.1116804E-1,-7.6312184E-1,-2.737903E-1],"categories":[],"categories_nodes":[],"categories_segments":[],"categories_sizes":[],"default_left":[1,1,1,1,1,1,1,1,1,0,1,1,1,1,1,0,0,0,0,0,0,0,0,0,0,0,0,0,0],"id":8,"left_children":[1,3,5,7,9,11,13,15,17,-1,19,21,23,25,27,-1,-1,-1,-1,-1,-1,-1,-1,-1,-1,-1,-1,-1,-1],"loss_changes":[8.645316E1,8.252617E0,6.0943424E1,6.018637E0,1.4088898E0,1.0932045E0,4.207371E1,1.9884892E0,1.2255559E0,0E0,3.9465523E0,6.8047696E-1,3.8993454E-1,4.80184E1,8.32515E0,0E0,0E0,0E0,0E0,0E0,0E0,0E0,0E0,0E0,0E0,0E0,0E0,0E0,0E0],"parents":[2147483647,0,0,1,1,2,2,3,3,4,4,5,5,6,6,7,7,8,8,10,10,11,11,12,12,13,13,14,14],"right_children":[2,4,6,8,10,12,14,16,18,-1,20,22,24,26,28,-1,-1,-1,-1,-1,-1,-1,-1,-1,-1,-1,-1,-1,-1],"split_conditions":[9.375E0,2.625E0,-1.5E0,4.125E0,5.375E0,2.125E0,1.0470654E0,2.875E0,-5E-1,-5.4132986E-1,2.9785156E-1,7.553789E1,6.875E0,4.609375E-1,4.9642616E1,2.4642114E-1,-4.4553414E-1,9.149594E-1,1.2978436E-1,-1.9533212E-1,-5.460805E-1,-3.9000455E-1,7.455682E-2,-6.316182E-1,-9.4589657E-1,1.261466E-1,-2.302541E-1,-4.2734823E-1,-1.5332256E-1],"split_indices":[6,0,7,1,1,0,4,1,7,0,8,3,0,8,2,0,0,0,0,0,0,0,0,0,0,0,0,0,0],"split_type":[0,0,0,0,0,0,0,0,0,0,0,0,0,0,0,0,0,0,0,0,0,0,0,0,0,0,0,0,0],"sum_hessian":[1.1468167E3,1.5113586E2,9.956808E2,7.3759785E0,1.4375989E2,3.99946E1,9.5568616E2,4.729324E0,2.6466546E0,1.0040604E2,4.3353855E1,2.775337E0,3.721926E1,8.07115E2,1.4857117E2,1.0739077E0,3.6554163E0,1.2485814E0,1.3980731E0,2.0058865E1,2.3294989E1,1.6303444E0,1.1449926E0,3.0429548E1,6.7897143E0,6.637883E2,1.4332664E2,5.7039288E1,9.153188E1],"tree_param":{"num_deleted":"0","num_feature":"10","num_nodes":"29","size_leaf_vector":"0"}},{"base_weights":[-9.339208E-2,-7.5219077E-1,-2.3514535E-2,-1.0641166E0,-6.029337E-1,-3.3630794E-1,1.0314418E-1,-6.843875E-1,2.764829E-1,-5.600344E-1,-7.975747E-2,4.2187956E-1,-1.2057296E-1,-1.0555808E-2,-7.645906E-1,9.6800774E-1,-5.7033294E-1,-8.64926E-1,-4.1039932E-1,1.2423232E-1,-1.0710115E0,5.440619E-1,-1.7295633E-1,-3.1842732E-1,1.3824916E-1],"categories":[],"categories_nodes":[],"categories_segments":[],"categories_sizes":[],"default_left":[1,1,1,0,1,1,1,1,1,1,1,1,1,0,0,0,0,0,0,0,0,0,0,0,0],"id":9,"left_children":[1,3,5,-1,7,9,11,13,15,17,19,21,23,-1,-1,-1,-1,-1,-1,-1,-1,-1,-1,-1,-1],"loss_changes":[4.8415657E1,4.0541534E0,3.776027E1,0E0,5.2410526E0,1.5721579E1,4.8435658E1,3.4957905E0,4.47013E0,6.331646E0,2.6242449E1,2.0448917E1,2.050099E1,0E0,0E0,0E0,0E0,0E0,0E0,0E0,0E0,0E0,0E0,0E0,0E0],"parents":[2147483647,0,0,1,1,2,2,4,4,5,5,6,6,7,7,8,8,9,9,10,10,11,11,12,12],"right_children":[2,4,6,-1,8,10,12,14,16,18,20,22,24,-1,-1,-1,-1,-1,-1,-1,-1,-1,-1,-1,-1],"split_conditions":[1.4485102E1,1.7138313E0,-1.9140625E-1,-5.959053E-1,6.875E0,7.461152E1,1.9946289E-1,2.625E0,1.3852942E-1,-5.058594E-1,9.522769E1,3.5335016E0,5.125E0,-5.911253E-3,-4.2817074E-1,5.4208434E-1,-3.1938645E-1,-4.8435855E-1,-2.2982362E-1,6.95701E-2,-5.997665E-1,3.0467466E-1,-9.685554E-2,-1.783193E-1,7.741953E-2],"split_indices":[2,2,9,0,0,3,8,0,4,9,3,5,0,0,0,0,0,0,0,0,0,0,0,0,0],"split_type":[0,0,0,0,0,0,0,0,0,0,0,0,0,0,0,0,0,0,0,0,0,0,0,0,0],"sum_hessian":[1.0510929E3,9.985982E1,9.512331E2,3.0334873E1,6.952495E1,2.7368695E2,6.7754614E2,6.383423E1,5.6907144E0,1.45564E2,1.2812294E2,2.7906686E2,3.9847928E2,6.910113E0,5.6924118E1,3.0538068E0,2.6369076E0,4.6347538E1,9.921646E1,1.06981865E2,2.1141083E1,2.3158374E2,4.7483124E1,2.2570825E2,1.7277103E2],"tree_param":{"num_deleted":"0","num_feature":"10","num_nodes":"25","size_leaf_vector":"0"}},{"base_weights":[-6.2097497E-2,-2.2626756E-2,-1.0457909E0,-1.0472733E0,1.6582726E-2,-6.674641E-1,-1.1450099E0,-2.802448E-1,-1.0904443E0,5.5085815E-2,-7.764186E-1,-2.7436146E-1,-1.0014029E0,1.8217541E-1,-6.073781E-1,-1.1236383E0,-3.3946243E-1,-1.17736645E-1,2.9034272E-1,1.8400648E-1,-1.0142168E0,-8.0592686E-1,1.0759232E0],"categories":[],"categories_nodes":[],"categories_segments":[],"categories_sizes":[],"default_left":[1,1,1,1,1,1,0,1,1,1,1,1,0,0,0,0,0,0,0,0,0,0,0],"id":10,"left_children":[1,3,5,7,9,11,-1,13,15,17,19,21,-1,-1,-1,-1,-1,-1,-1,-1,-1,-1,-1],"loss_changes":[3.7231667E1,3.7120785E1,6.243744E-1,8.220215E-1,2.723156E1,1.0489702E0,0E0,5.887317E-1,4.1358948E-1,3.4600212E1,9.618982E0,5.1801305E0,0E0,0E0,0E0,0E0,0E0,0E0,0E0,0E0,0E0,0E0,0E0],"parents":[2147483647,0,0,1,1,2,2,3,3,4,4,5,5,7,7,8,8,9,9,10,10,11,11],"right_children":[2,4,6,8,10,12,-1,14,16,18,20,22,-1,-1,-1,-1,-1,-1,-1,-1,-1,-1,-1],"split_conditions":[1.5E0,-1.5E0,4.7851562E-2,2.125E0,1.0173262E2,6.683119E1,-6.4120555E-1,3.1875E1,3.3196595E0,7.6449585E1,3.0702438E0,5.9744343E1,-5.607856E-1,1.0201823E-1,-3.4013176E-1,-6.292374E-1,-1.9009896E-1,-6.593252E-2,1.6259192E-1,1.0304363E-1,-5.679614E-1,-4.5131904E-1,6.02517E-1],"split_indices":[7,7,8,0,3,3,0,6,4,3,5,3,0,0,0,0,0,0,0,0,0,0,0],"split_type":[0,0,0,0,0,0,0,0,0,0,0,0,0,0,0,0,0,0,0,0,0,0,0],"sum_hessian":[9.5851855E2,9.2252515E2,3.5993362E1,3.3053036E1,8.894721E2,9.083754E0,2.6909607E1,2.160393E0,3.0892641E1,8.491723E2,4.029986E1,5.0089555E0,4.074798E0,1.0787039E0,1.0816891E0,2.9109743E1,1.7828988E0,4.89834E2,3.5933826E2,8.042759E0,3.22571E1,3.8833451E0,1.1256102E0],"tree_param":{"num_deleted":"0","num_feature":"10","num_nodes":"23","size_leaf_vector":"0"}},{"base_weights":[-4.098743E-2,-2.3571385E-1,9.658879E-2,-4.2637578E-1,-7.676369E-2,2.918486E-1,-1.9555426E-1,-3.352371E-1,-8.729144E-1,5.7863516E-1,-1.803851E-1,4.641794E-1,-7.5582474E-2,-6.7703575E-2,-6.8615186E-1,-9.885883E-2,-5.303893E-1,-9.0396637E-1,-1.9698529E-2,-8.104837E-1,7.7791846E-1,-4.2593622E-1,7.871307E-3,1.123852E0,3.7833133E-1,-6.2313503E-1,8.548263E-2,-2.2972226E-1,3.068605E-1,-1.1534153E0,-3.5567448E-1],"categories":[],"categories_nodes":[],"categories_segments":[],"categories_sizes":[],"default_left":[1,1,1,1,1,1,1,1,1,1,1,1,1,1,1,0,0,0,0,0,0,0,0,0,0,0,0,0,0,0,0],"id":11,"left_children":[1,3,5,7,9,11,13,15,17,19,21,23,25,27,29,-1,-1,-1,-1,-1,-1,-1,-1,-1,-1,-1,-1,-1,-1,-1,-1],"loss_changes":[2.4206371E1,1.1302355E1,3.0272884E1,6.6189137E0,1.4039843E1,2.0164005E1,1.3301137E1,6.528723E0,7.283554E-1,8.451119E0,8.229093E0,1.1837769E1,9.0800705E0,1.0382248E1,6.366106E0,0E0,0E0,0E0,0E0,0E0,0E0,0E0,0E0,0E0,0E0,0E0,0E0,0E0,0E0,0E0,0E0],"parents":[2147483647,0,0,1,1,2,2,3,3,4,4,5,5,6,6,7,7,8,8,9,9,10,10,11,11,12,12,13,13,14,14],"right_children":[2,4,6,8,10,12,14,16,18,20,22,24,26,28,30,-1,-1,-1,-1,-1,-1,-1,-1,-1,-1,-1,-1,-1,-1,-1,-1],"split_conditions":[4.125E0,5.4736954E1,2.2684392E-1,6.0546875E-1,2.7625E1,3.005371E-1,8.373091E1,2.1625E1,4.995549E0,8.625E0,-4.9926758E-2,4.187608E1,4.875E0,2.2875E1,6.73903E1,-5.5360947E-2,-2.9701802E-1,-5.062212E-1,-1.1031176E-2,-4.5387086E-1,4.3563434E-1,-2.3852429E-1,4.407932E-3,6.2935716E-1,2.1186554E-1,-3.4895563E-1,4.787027E-2,-1.2864447E-1,1.7184189E-1,-6.459126E-1,-1.9917771E-1],"split_indices":[0,2,4,8,6,8,3,6,5,1,9,3,0,1,2,0,0,0,0,0,0,0,0,0,0,0,0,0,0,0,0],"split_type":[0,0,0,0,0,0,0,0,0,0,0,0,0,0,0,0,0,0,0,0,0,0,0,0,0,0,0,0,0,0,0],"sum_hessian":[9.0171936E2,3.730244E2,5.2869495E2,1.688296E2,2.0419481E2,3.168936E2,2.1180135E2,1.4166621E2,2.7163378E1,2.725084E1,1.7694397E2,2.1553914E2,1.01354454E2,1.689188E2,4.2882557E1,6.474743E1,7.691879E1,2.6152115E1,1.0112643E0,3.0341413E0,2.4216698E1,7.6239235E1,1.00704735E2,2.3427399E1,1.9211174E2,2.2385267E1,7.8969185E1,1.1818447E2,5.0734314E1,1.6733225E1,2.6149332E1],"tree_param":{"num_deleted":"0","num_feature":"10","num_nodes":"31","size_leaf_vector":"0"}},{"base_weights":[-3.0831723E-2,-6.595889E-1,6.012111E-3,2.0063624E-1,-7.987609E-1,2.9221816E-2,-9.353183E-1,6.118068E-1,-4.4401833E-1,-1.0402397E0,-6.05023E-1,-8.9204025E-1,5.214948E-2,-4.584463E-1,-1.0891597E0,-3.4826258E-1,1.4106874E0,-6.0505927E-1,-2.5322858E-2,-7.435949E-1,3.3841124E-1,-1.1284488E0,-5.16623E-1,7.255108E-2,-9.6659386E-1,6.7994306E-3,-8.412567E-1],"categories":[],"categories_nodes":[],"categories_segments":[],"categories_sizes":[],"default_left":[1,1,1,1,1,1,1,1,1,0,1,1,1,1,0,0,0,0,0,0,0,0,0,0,0,0,0],"id":12,"left_children":[1,3,5,7,9,11,13,15,17,-1,19,21,23,25,-1,-1,-1,-1,-1,-1,-1,-1,-1,-1,-1,-1,-1],"loss_changes":[1.9848852E1,5.8383007E0,1.7728954E1,2.234145E0,1.2898865E0,1.676891E1,9.33197E-1,4.2810326E0,2.1816152E-1,0E0,3.5398855E0,1.1281338E0,1.6144695E1,1.1615442E0,0E0,0E0,0E0,0E0,0E0,0E0,0E0,0E0,0E0,0E0,0E0,0E0,0E0],"parents":[2147483647,0,0,1,1,2,2,3,3,4,4,5,5,6,6,7,7,8,8,10,10,11,11,12,12,13,13],"right_children":[2,4,6,8,10,12,14,16,18,-1,20,22,24,26,-1,-1,-1,-1,-1,-1,-1,-1,-1,-1,-1,-1,-1],"split_conditions":[1.1929195E1,2.875E0,1.5E0,4.625E0,1.7138313E0,-1.5E0,4.7851562E-2,4.625E0,3.095398E0,-5.8253425E-1,7.875E0,1.8375E1,1.199585E0,5.1795395E1,-6.0992944E-1,-1.9502704E-1,7.89985E-1,-3.3883318E-1,-1.4180801E-2,-4.1641313E-1,1.895103E-1,-6.3193136E-1,-2.893089E-1,4.0628605E-2,-5.4129255E-1,3.8076811E-3,-4.7110373E-1],"split_indices":[2,0,7,1,2,7,8,6,5,0,0,1,8,2,0,0,0,0,0,0,0,0,0,0,0,0,0],"split_type":[0,0,0,0,0,0,0,0,0,0,0,0,0,0,0,0,0,0,0,0,0,0,0,0,0,0,0],"sum_hessian":[8.55645E2,4.642796E1,8.0921704E2,6.4038687E0,4.002409E1,7.906905E2,1.852653E1,3.9411175E0,2.4627512E0,1.58718195E1,2.4152271E1,1.827977E1,7.7241077E2,5.4897146E0,1.3036815E1,2.046164E0,1.8949535E0,1.4571776E0,1.0055734E0,2.1243797E1,2.9084742E0,9.9857E0,8.29407E0,7.581565E2,1.4254244E1,2.921423E0,2.5682914E0],"tree_param":{"num_deleted":"0","num_feature":"10","num_nodes":"27","size_leaf_vector":"0"}},{"base_weights":[-2.8490571E-2,-5.6911194E-1,8.228133E-3,-7.339466E-1,1.8760303E-1,6.323535E-2,-3.6240545E-1,-9.7745097E-1,-1.6750244E-2,-5.4792625E-1,8.8790506E-1,2.3259819E-2,6.389569E-1,-5.704447E-1,3.0564493E-1,-6.769202E-1,-1.6612566E0,-4.7765285E-1,3.823938E-1,1.0060969E-1,-1.2875034E0,-2.3966876E-1,1.2474321E0,-6.592829E-1,5.2273322E-2,4.2856667E-2,8.068834E-1,-8.4329486E-1,9.930986E-2,1.0789576E0,-4.2687935E-1],"categories":[],"categories_nodes":[],"categories_segments":[],"categories_sizes":[],"default_left":[1,1,1,1,1,1,1,1,1,1,1,1,1,1,1,0,0,0,0,0,0,0,0,0,0,0,0,0,0,0,0],"id":13,"left_children":[1,3,5,7,9,11,13,15,17,19,21,23,25,27,29,-1,-1,-1,-1,-1,-1,-1,-1,-1,-1,-1,-1,-1,-1,-1,-1],"loss_changes":[1.6515572E1,6.7376823E0,1.5921746E1,7.607067E0,5.7717743E0,1.5632935E1,1.4201565E1,5.568838E0,2.4052901E0,2.826528E0,2.5845308E0,1.2644901E1,4.380516E0,1.4211777E1,1.4406019E1,0E0,0E0,0E0,0E0,0E0,0E0,0E0,0E0,0E0,0E0,0E0,0E0,0E0,0E0,0E0,0E0],"parents":[2147483647,0,0,1,1,2,2,3,3,4,4,5,5,6,6,7,7,8,8,9,9,10,10,11,11,12,12,13,13,14,14],"right_children":[2,4,6,8,10,12,14,16,18,20,22,24,26,28,30,-1,-1,-1,-1,-1,-1,-1,-1,-1,-1,-1,-1,-1,-1,-1,-1],"split_conditions":[-6.0546875E-1,7.025357E1,8.654196E1,3.5125E1,3.2158499E0,1.3125E1,8.685147E1,1.9625E1,-9.4140625E-1,2.34375E-2,-1.2734375E0,6.875E0,7.186554E1,1.0375E1,1.0723433E2,-3.790753E-1,-9.303037E-1,-2.674856E-1,2.1414053E-1,5.634143E-2,-7.2100186E-1,-1.342145E-1,6.9856197E-1,-3.6919844E-1,2.9273061E-2,2.3999734E-2,4.518547E-1,-4.7224513E-1,5.561352E-2,6.042162E-1,-2.3905243E-1],"split_indices":[9,2,3,6,5,0,2,1,9,8,9,6,3,0,3,0,0,0,0,0,0,0,0,0,0,0,0,0,0,0,0],"split_type":[0,0,0,0,0,0,0,0,0,0,0,0,0,0,0,0,0,0,0,0,0,0,0,0,0,0,0,0,0,0,0],"sum_hessian":[8.3074445E2,5.1913017E1,7.788314E2,4.2652206E1,9.260811E0,6.789022E2,9.992921E1,3.1570452E1,1.1081757E1,4.622925E0,4.6378856E0,6.357958E2,4.3106415E1,7.631108E1,2.3618122E1,2.331396E1,8.256493E0,5.051712E0,6.030044E0,2.9233766E0,1.6995485E0,1.2018709E0,3.4360144E0,2.503863E1,6.1075714E2,9.750302E0,3.335611E1,5.4037666E1,2.2273418E1,1.12591305E1,1.2358992E1],"tree_param":{"num_deleted":"0","num_feature":"10","num_nodes":"31","size_leaf_vector":"0"}},{"base_weights":[-1.7800948E-2,8.092814E-3,-5.6855005E-1,-1.8313605E-1,8.3904475E-2,-8.4418017E-1,2.8057203E-1,-5.094742E-1,-8.440665E-2,1.13604486E-1,-6.2456024E-1,-5.222505E-1,-1.3264135E0,7.602486E-1,-6.74899E-1,-1.1469049E-1,-8.51268E-1,2.5813242E-2,-4.008908E-1,1.3342538E-1,-7.950297E-1,-9.605705E-1,-7.2513916E-2,-9.770286E-1,2.8958425E-1,1.0768872E0,-4.0550157E-1,-5.377816E-2,-1.0355045E0],"categories":[],"categories_nodes":[],"categories_segments":[],"categories_sizes":[],"default_left":[1,1,1,1,1,1,1,1,1,1,1,1,0,1,1,0,0,0,0,0,0,0,0,0,0,0,0,0,0],"id":14,"left_children":[1,3,5,7,9,11,13,15,17,19,21,23,-1,25,27,-1,-1,-1,-1,-1,-1,-1,-1,-1,-1,-1,-1,-1,-1],"loss_changes":[1.1478089E1,1.11696005E1,8.695488E0,7.0047045E0,1.1678534E1,3.5818005E0,4.916269E0,6.731168E0,5.910237E0,9.656834E0,4.0760574E0,6.987975E0,0E0,2.9712348E0,7.8218055E-1,0E0,0E0,0E0,0E0,0E0,0E0,0E0,0E0,0E0,0E0,0E0,0E0,0E0,0E0],"parents":[2147483647,0,0,1,1,2,2,3,3,4,4,5,5,6,6,7,7,8,8,9,9,10,10,11,11,13,13,14,14],"right_children":[2,4,6,8,10,12,14,16,18,20,22,24,-1,26,28,-1,-1,-1,-1,-1,-1,-1,-1,-1,-1,-1,-1,-1,-1],"split_conditions":[3.912879E0,-1.9140625E-1,7.151961E1,5.138848E1,8.498535E-1,3.7125E1,8.670228E1,1.5125E1,3.858561E-1,4.5675726E0,7.912168E1,2.9625E1,-7.427916E-1,4.875E1,-5.859375E-2,-6.422667E-2,-4.7671008E-1,1.4455416E-2,-2.2449885E-1,7.4718215E-2,-4.4521663E-1,-5.3791946E-1,-4.060779E-2,-5.47136E-1,1.6216718E-1,6.0305685E-1,-2.2708088E-1,-3.011577E-2,-5.798825E-1],"split_indices":[4,9,2,3,9,6,3,6,4,5,3,6,0,6,9,0,0,0,0,0,0,0,0,0,0,0,0,0,0],"split_type":[0,0,0,0,0,0,0,0,0,0,0,0,0,0,0,0,0,0,0,0,0,0,0,0,0,0,0,0,0],"sum_hessian":[8.0353796E2,7.6839667E2,3.5141273E1,2.1774261E2,5.5065405E2,2.6533998E1,8.607275E0,4.9608234E1,1.6813438E2,5.293044E2,2.1349667E1,1.7160778E1,9.37322E0,5.8664517E0,2.740823E0,2.3639425E1,2.596881E1,1.2538559E2,4.2748795E1,5.188396E2,1.0464783E1,1.2811663E1,8.538005E0,1.0868769E1,6.292009E0,4.6733217E0,1.1931299E0,1.4288497E0,1.3119732E0],"tree_param":{"num_deleted":"0","num_feature":"10","num_nodes":"29","size_leaf_vector":"0"}},{"base_weights":[-1.981581E-2,-4.3671886E-3,-8.2000476E-1,-9.573288E-1,8.0423225E-3,-3.708065E-1,-1.0050647E0,1.2417335E-1,-1.0626831E-1,-7.5397605E-1,9.6094556E-2,-5.6095433E-1,1.7522757E-1,6.23582E-1,-1.4448935E-1,9.0492386E-1,-6.39982E-1],"categories":[],"categories_nodes":[],"categories_segments":[],"categories_sizes":[],"default_left":[1,1,1,0,1,1,0,1,1,0,1,0,0,0,0,0,0],"id":15,"left_children":[1,3,5,-1,7,9,-1,11,13,-1,15,-1,-1,-1,-1,-1,-1],"loss_changes":[9.677524E0,9.105489E0,8.599348E-1,0E0,1.0107784E1,1.1299465E0,0E0,1.3308604E1,1.0795119E1,0E0,2.693466E0,0E0,0E0,0E0,0E0,0E0,0E0],"parents":[2147483647,0,0,1,1,2,2,4,4,5,5,7,7,8,8,10,10],"right_children":[2,4,6,-1,8,10,-1,12,14,-1,16,-1,-1,-1,-1,-1,-1],"split_conditions":[1.5E0,1.7138313E0,4.7851562E-2,-5.3610414E-1,3.1375E1,1.3375E1,-5.628362E-1,2.429964E0,2.2659702E0,-4.2222658E-1,1.8625E1,-3.1413442E-1,9.812744E-2,3.492059E-1,-8.0914035E-2,5.067574E-1,-3.583899E-1],"split_indices":[7,2,8,0,6,1,0,5,5,0,1,0,0,0,0,0,0],"split_type":[0,0,0,0,0,0,0,0,0,0,0,0,0,0,0,0,0],"sum_hessian":[7.821458E2,7.6831793E2,1.3827856E1,8.897646E0,7.594203E2,4.9110117E0,8.916844E0,3.766678E2,3.827525E2,2.3596647E0,2.551347E0,2.5429281E1,3.5123853E2,1.8284544E1,3.6446796E2,1.1063066E0,1.4450405E0],"tree_param":{"num_deleted":"0","num_feature":"10","num_nodes":"17","size_leaf_vector":"0"}},{"base_weights":[-1.45275155E-2,-1.8232973E-1,4.649449E-2,-2.3177092E-1,7.8656644E-1,-3.1874616E-2,2.514581E-1,3.5796946E-1,-2.751467E-1,1.0741669E0,-4.773017E-1,-5.8214474E-1,1.6210986E-2,4.0796363E-1,-6.229146E-2,-3.8106656E-1,1.0734221E0,4.635947E-2,-3.563085E-1,-7.810038E-2,1.3791411E0,-3.6234993E-1,-1.0412328E0,7.798152E-2,-5.473326E-1,5.1533777E-1,8.930137E-2,1.2552074E-1,-8.8371485E-1],"categories":[],"categories_nodes":[],"categories_segments":[],"categories_sizes":[],"default_left":[1,1,1,1,1,1,1,1,1,1,0,1,1,1,1,0,0,0,0,0,0,0,0,0,0,0,0,0,0],"id":16,"left_children":[1,3,5,7,9,11,13,15,17,19,-1,21,23,25,27,-1,-1,-1,-1,-1,-1,-1,-1,-1,-1,-1,-1,-1,-1],"loss_changes":[8.022914E0,1.0190641E1,9.24029E0,5.2032347E0,4.282527E0,1.1034575E1,7.837284E0,7.867795E0,4.8817453E0,3.184784E0,0E0,3.004241E0,1.3415399E1,3.5903187E0,8.41302E0,0E0,0E0,0E0,0E0,0E0,0E0,0E0,0E0,0E0,0E0,0E0,0E0,0E0,0E0],"parents":[2147483647,0,0,1,1,2,2,3,3,4,4,5,5,6,6,7,7,8,8,9,9,11,11,12,12,13,13,14,14],"right_children":[2,4,6,8,10,12,14,16,18,20,-1,22,24,26,28,-1,-1,-1,-1,-1,-1,-1,-1,-1,-1,-1,-1,-1,-1],"split_conditions":[3.375E0,6E1,2.5875E1,2.125E0,9.3023895E1,2.4682379E0,1.328125E-1,3.2447667E0,2.1625E1,7.370183E1,-2.6728895E-1,3.0859375E-1,8.484009E1,4.3125E1,8.485714E-1,-2.1339728E-1,6.0111636E-1,2.5961302E-2,-1.9953276E-1,-4.3736216E-2,7.72319E-1,-2.0291597E-1,-5.8309036E-1,4.366965E-2,-3.0650625E-1,2.8858915E-1,5.0008766E-2,7.0291616E-2,-4.9488032E-1],"split_indices":[0,6,1,0,3,5,9,5,6,3,0,8,3,6,4,0,0,0,0,0,0,0,0,0,0,0,0,0,0],"split_type":[0,0,0,0,0,0,0,0,0,0,0,0,0,0,0,0,0,0,0,0,0,0,0,0,0,0,0,0,0],"sum_hessian":[7.8168823E2,2.0792763E2,5.737606E2,1.9855641E2,9.37122E0,4.156708E2,1.5808983E2,1.310651E1,1.8544989E2,7.7563205E0,1.6148998E0,3.2511967E1,3.831588E2,1.0527563E2,5.2814198E1,6.676898E0,6.4296117E0,3.7465733E1,1.4798416E2,1.778944E0,5.9773765E0,2.3195892E1,9.316074E0,3.460857E2,3.707315E1,7.828132E1,2.6994305E1,4.3675354E1,9.1388445E0],"tree_param":{"num_deleted":"0","num_feature":"10","num_nodes":"29","size_leaf_vector":"0"}},{"base_weights":[-9.087461E-3,-7.417564E-1,5.1068333E-3,-1.042612E0,-3.428006E-1,-3.8565792E-2,2.121643E-1,1.0411551E0,-8.597144E-1,3.4719554E-1,-7.420876E-2,-3.6958376E-1,3.9143324E-1,1.3125192E-1,-1.0843915E0,-4.4299558E-1,6.2449163E-1,-7.911276E-1,-4.6372503E-2,-1.2228974E-1,-1.6238644E0,4.5285434E-1,-7.1158266E-1],"categories":[],"categories_nodes":[],"categories_segments":[],"categories_sizes":[],"default_left":[1,1,1,0,1,1,1,0,1,1,1,1,1,0,0,0,0,0,0,0,0,0,0],"id":17,"left_children":[1,3,5,-1,7,9,11,-1,13,15,17,19,21,-1,-1,-1,-1,-1,-1,-1,-1,-1,-1],"loss_changes":[7.953562E0,1.3871813E0,6.7982626E0,0E0,6.431119E0,8.563526E0,1.3800811E1,0E0,1.5187049E0,1.1823295E1,1.1323386E1,9.528648E0,7.1366777E0,0E0,0E0,0E0,0E0,0E0,0E0,0E0,0E0,0E0,0E0],"parents":[2147483647,0,0,1,1,2,2,4,4,5,5,6,6,8,8,9,9,10,10,11,11,12,12],"right_children":[2,4,6,-1,8,10,12,-1,14,16,18,20,22,-1,-1,-1,-1,-1,-1,-1,-1,-1,-1],"split_conditions":[-1.5E0,1.8375E1,8.625E0,-5.838627E-1,2.2125E1,3.1764526E1,1.5875E1,5.8304685E-1,-3.4960938E-1,6.625E0,1.0875E1,1.2625E1,3.798033E0,7.350107E-2,-6.072592E-1,-2.4807753E-1,3.4971532E-1,-4.4303146E-1,-2.5968602E-2,-6.848226E-2,-9.093641E-1,2.5359842E-1,-3.984863E-1],"split_indices":[7,1,0,0,1,3,1,0,9,6,6,0,4,0,0,0,0,0,0,0,0,0,0],"split_type":[0,0,0,0,0,0,0,0,0,0,0,0,0,0,0,0,0,0,0,0,0,0,0],"sum_hessian":[7.634221E2,1.3534843E1,7.4988727E2,6.7963285E0,6.7385144E0,6.1994257E2,1.2994473E2,1.5566509E0,5.181864E0,5.1696293E1,5.682463E2,3.0360348E1,9.958438E1,1.0345724E0,4.147291E0,1.3273677E1,3.842262E1,2.0214106E1,5.4803217E2,2.627706E1,4.083288E0,9.488991E1,4.694474E0],"tree_param":{"num_deleted":"0","num_feature":"10","num_nodes":"23","size_leaf_vector":"0"}},{"base_weights":[-1.0419986E-2,-9.2614734E-1,-9.4707706E-4,5.8174144E-2,-1.4738828E-1,-3.7622085E-1,8.563045E-2,-2.759917E-1,3.326747E-2,-8.650879E-1,-1.4938389E-1,1.4486346E-1,-1.7167522E-1,-4.5368412E-1,-9.781436E-2,2.3120786E-1,-4.7293657E-1],"categories":[],"categories_nodes":[],"categories_segments":[],"categories_sizes":[],"default_left":[1,0,1,1,1,1,1,1,1,0,0,0,0,0,0,0,0],"id":18,"left_children":[1,-1,3,5,7,9,11,13,15,-1,-1,-1,-1,-1,-1,-1,-1],"loss_changes":[6.506343E0,0E0,6.4453483E0,6.357724E0,4.9835725E0,3.3876657E0,7.639924E0,3.9189472E0,9.120013E0,0E0,0E0,0E0,0E0,0E0,0E0,0E0,0E0],"parents":[2147483647,0,0,2,2,3,3,4,4,5,5,6,6,7,7,8,8],"right_children":[2,-1,4,6,8,10,12,14,16,-1,-1,-1,-1,-1,-1,-1,-1],"split_conditions":[1.7138313E0,-5.186425E-1,3.9250702E-1,-6.171875E-1,7.74563E1,5.7261406E1,3.005371E-1,5.125E0,4.525E1,-4.8444924E-1,-8.365498E-2,8.112354E-2,-9.613813E-2,-2.540631E-1,-5.4776043E-2,1.294764E-1,-2.6484448E-1],"split_indices":[2,0,4,9,3,3,9,0,6,0,0,0,0,0,0,0,0],"split_type":[0,0,0,0,0,0,0,0,0,0,0,0,0,0,0,0,0],"sum_hessian":[7.4914624E2,6.6795483E0,7.4246674E2,5.2935736E2,2.1310934E2,3.0714283E1,4.986431E2,1.2418093E2,8.8928406E1,8.842878E0,2.1871405E1,4.056886E2,9.295448E1,6.1400894E1,6.2780037E1,6.432049E1,2.4607918E1],"tree_param":{"num_deleted":"0","num_feature":"10","num_nodes":"17","size_leaf_vector":"0"}}]},"name":"gbtree"},"learner_model_param":{"base_score":"5E-1","boost_from_average":"1","num_class":"0","num_feature":"10","num_target":"1"},"objective":{"name":"binary:logistic","reg_loss_param":{"scale_pos_weight":"1"}}},"version":[1,7,6]}